#ifndef PMNS_PARAMS_H_INCLUDED
#define PMNS_PARAMS_H_INCLUDED

#define RHO 53
#define N 21
#define LAMBDA 2

#define M_or_B_is_B

static const int64_t B[N][N] = {
{-179771322659181, -203547387569811, 97723339911592, 139607331797058, -65412162824320, -185146965846771, 91592034981076, 50423321683928, -69607085304957, 38873688480592, 10511290659129, 195280776831572, 195321826393787, 121474693613971, 74815449048504, 47760729570022, 208831823490977, -46404209401559, -2492119627905, -228765971081341, -103195682594489}, {206391365188978, 179771322659181, 203547387569811, -97723339911592, -139607331797058, 65412162824320, 185146965846771, -91592034981076, -50423321683928, 69607085304957, -38873688480592, -10511290659129, -195280776831572, -195321826393787, -121474693613971, -74815449048504, -47760729570022, -208831823490977, 46404209401559, 2492119627905, 228765971081341}, {-108881951339895, -36485161881280, -149697851068847, 17689746146138, 110699009248223, 11285892139944, 204450518156438, -19456912526927, -34582950027463, 60594521349292, 104551440365388, -112573247617040, -77338829446807, -30482421661483, -44770808313058, 380940985490010, 40307882535561, 359978667996000, 60146909674496, -23985166380056, -60956341086516}, {-23758601698558, -24539218706243, -180525996979056, -342650279343741, 146058049593715, -171195666125042, -347818406975418, -78348516471064, 8969887795396, 246724162763536, 63151809045672, -37193046855197, 14562279786376, 175833119749466, -65358767445050, -61811571533395, -113403659747979, 59139185242022, 15689062497500, 7799466629115, 79411425088437}, {-330736993595563, 182038771451867, -4420361913998, 130441810647315, 1766683450735, -159537775404183, 194502877097735, -152565807987601, -145880281837492, -165246283058699, -128091136136956, -54812556359875, 201392402703745, 52604297490848, 83297278860586, -330226169262951, 163126464714936, -106004947856896, -50734072645628, -115285451875537, -18459036859474}, {33040302780319, -230822626656354, 283219677889437, 7074708261835, -19055005346404, -60653684281090, -331900578979340, 41920045219400, -231794132783743, 289583499783714, -137144679694345, 14848173833069, -7080263334215, 108322705580002, 283013141264512, 60197722388635, -31795570614717, -285815649754287, 163928163092693, -154854120270798, -85591876181894}, {118827742063878, -68311471452016, -231031240669673, -168050615185874, -145493540402783, 129401385906600, 156358383371737, -99161187656737, -123220401192003, -239129073625003, 117599511040348, -32476532870278, 18741340896226, 45244254357650, 34377273326925, -215334459823375, 157733190006185, -380288554683219, -216622225732728, 27692442145831, 39997098192355}, {123690431849839, -200089821043833, -30388921709633, 55522678627659, 57314435290626, -449101804403004, -111414118581187, 40802082192743, 326983007835657, 56464001185817, -41830176202418, 47691243463445, -19222564343927, 277068088339131, 3955163006531, 137359504727279, -193706081576687, 226021021175935, 122153803828266, -95876712793209, 21669166984735}, {123623143066790, 226807319495958, -118278370484044, -31378124995000, -15598933258230, -158822850176874, 23758601698558, 24539218706243, 180525996979056, 342650279343741, -146058049593715, 171195666125042, 347818406975418, 78348516471064, -8969887795396, -246724162763536, -63151809045672, 37193046855197, -14562279786376, -175833119749466, 65358767445050}, {-280338391056542, -265847428919579, 202088545742957, -26218874620421, -3583741359063, 184737045145519, -249255544185326, 154332974368390, 69764222616732, 93365869569463, -180910822384870, 186842716503842, -89470623229475, -82716397178657, -143077910912916, 61858431389981, -126095517803690, -223491298477621, 35357971284190, -241670367234417, 39107495410429}, {82654071170137, -289644933409797, -130018315507701, -185852737945785, -76570774252623, -82024795930993, -123517978912091, -117033898016705, 132683958924342, 100582902304464, 145354723510610, 214697552785237, 171250167025453, 377349991794835, 374688715807679, 56662175566953, 206308443092674, -29125901493020, 161568895550014, 105770805007110, -65379919686833}, {-24539218706243, -180525996979056, -342650279343741, 146058049593715, -171195666125042, -347818406975418, -78348516471064, 8969887795396, 246724162763536, 63151809045672, -37193046855197, 14562279786376, 175833119749466, -65358767445050, -61811571533395, -113403659747979, 59139185242022, 15689062497500, 7799466629115, 79411425088437, -11879300849279}, {260375203221724, 223048028876093, -147782726837598, -45109831748870, -52851455190653, 108491629623341, 194536814547508, 280775307762721, -147526422732499, -81105296255202, 211062931727498, 111102003897733, -230056052198709, 71604118103668, 80439584580963, -133478073262302, -107013080611744, -27763175513524, -186555388614248, 149650220383274, -3745571268686}, {114457621917047, 293986165771013, -92669180041456, 71532717121659, -218588062929759, -235096046709409, -180361369840733, -114063208089842, -69567336212391, 348720855653699, -214928445716838, 179677495937124, -30168491857555, 32643157695023, -68570626250733, -294966115781259, 50328710160132, 121929692590212, -90045115254567, 16959959761373, 14286916532255}, {-117432378517753, -344950856761, 242657412675379, -191884336118380, -22476283146383, -141232618078646, -88769152293709, -230216239016435, -122346411333433, 150754418392647, 54246323751136, 182159389344709, -45991192000701, -2565453395738, 555235606523, -11527461565070, 78149855834459, -151326039337456, -321339833218856, -258782267359882, -154996954420711}, {130222586182241, -86115009052058, 98068290768353, -103050080878321, 126472173294060, -162670682700388, 232824653059722, 139192473977637, 160609153711478, 161220099814025, -140243127733518, 141034453080436, 13162437049078, 167465885614672, 77380902444242, 47205493963499, 220359285056047, -124554065236018, 148833919709551, 92573862137515, 155586584765393}, {-61604093914263, 69662178026562, 269353668560419, -151711192127962, -92423817385128, -9152083064544, -47473133862429, 136761578029100, 236613394626749, 151599042888788, 89770612796575, 175452775969576, -276019155554113, 278539831055390, -329962371717459, -8345637848274, -7184305690658, -40644877270009, -18026060711946, 183988414898359, 53380985695455}, {-31378124995000, -15598933258230, -158822850176874, 23758601698558, 24539218706243, 180525996979056, 342650279343741, -146058049593715, 171195666125042, 347818406975418, 78348516471064, -8969887795396, -246724162763536, -63151809045672, 37193046855197, -14562279786376, -175833119749466, 65358767445050, 61811571533395, 113403659747979, -59139185242022}, {-408784166461214, 9928766833249, -38144676291946, 219980972941385, 5831870461574, 162957335175340, -12972831631541, 215134906913584, 28493464729414, 149323261571534, -43230418342413, -120786215206591, 175617403107899, -47432084300214, 62914445249284, 189954150061282, 124544323410306, 250841706717530, -79783256922960, -232107065780459, 52265979601954}, {165895700916175, -32850850192292, -72194024723952, 38575974769188, 101574010140196, 17354747692364, 118290727614458, 149783192312185, 103616811159840, -66006615717496, 310330056517893, 174650638009086, -103541753341131, 73120938160161, -214156141629787, 348271598105821, 122271737703816, -35524597280386, -155994092610531, -318605066931006, -59291679227617}, {-251623091256646, 141726773841254, 77946528683544, -43085440672489, 38605013210545, -88848431474459, -191075323654354, -110319949630073, -147805913654194, 14468091390468, 96493619913324, -69731963350714, 120133784399800, 696940089268, -340239025841617, -163058453116135, -225382854713165, -29432246597782, -80885110712746, 182051145456537, 379702761516274}
		},
	B1[N][N] = {
{1723179155536657041, -5100465523293164399, 3117408957988992554, -7662414143119147149, -337616256309547358, 6349130671836552225, -9120091874139530437, 5739495631608370243, -4253872982942639213, 6659765521670242777, -9004927234669490739, -471721386874854321, -5671680951889279515, 3107141533783635363, -8029966457462904029, -4263065478964133283, 2954632563484047095, 8527210239954816076, 6498788882741202981, 8203930166911793580, -3208451819496092017}, {-3343286559992206125, 8424583181178711355, 5248625386954308295, 3108270709789768978, -2583117953450311565, -289738592087600061, 4908955577301800801, -1360716798990039033, -519463480939987285, -7744428683971848379, -5320599992505576042, 6194959369401496701, -6772848331949286740, -4917249658402624728, -5408571336386300368, -1607632023968496588, -4000053726930594291, -192052938321401705, -1308432915480086188, 3099590360184448647, -2029180496765376013}, {-7094497581211457900, 6435263230642135939, 4994604193123571361, 674223702238679354, -866460599379124194, -8501067472485902871, 1446934150569454399, -6498788882741202981, -5614914475871301069, 6517365058127240136, 7731087943950153466, -5986044791392753802, 3705496410742846894, -8074310160861627171, 9061500759760043480, 7737013765939143403, 5509770742755983019, -7897603075994842890, -5607685750899090879, -3976293014929128330, 5796622657457704759}, {-7668875979584949872, 8856842406953855396, 3400853374071647921, -1019748189046954318, 2011704384783300798, -1153957640947741769, 6684840980970123582, 1308432915480086188, -3424707813047014570, 184393437972266622, -7433064950294138433, 1866770032543408789, -1720386535418242147, 5231209885733077379, -801090066905633353, 3953500174734205406, 1525436197624562769, -667445797820617724, -5199959565014425194, 2866414167292115559, 3819395044168898443}, {6399559884076931514, -5070089340788953515, -5038156959997750350, 4806413810878218022, 8923804810847504388, 1331307366757943534, 755819640931959500, 5607685750899090879, 9007700705069596109, 1032023799841868367, -8677420985675473361, 4329787156602225241, -1939885219689614593, 4400725304721695505, -5642856998916119937, 14336183266524862, -8769539054840475782, 2797875619493559638, 5478936372358768175, -8542070091221079961, 8792413506118333128}, {8598246789425451923, -2982518287249063747, -4505722448758033822, 1320300008479456550, -4425868796920404676, -3099055009076189665, -5906061739044863185, 5199959565014425194, -1317439723002407516, -6301249966470933687, -8259665337173277807, 4025482483761670510, -3920240549548986870, -5474002903476903531, 683371957555015743, 5874761251956161917, 8984826253791738763, -2051422885797929274, -8755202871573950920, -2740631334122429475, 755177059942532309}, {-911407294447105645, -418335542268582079, -2297167410749342125, -8925423059182056799, -3984103034202641416, -1214647163517306649, 7075974934114001392, -5478936372358768175, 2564258731537729908, -8870318439684301450, 4691296202793970316, -459706667972667444, -5836114733462704838, -4928460951940792116, -8679274374453865094, 4787770660444838754, 7389301036972873028, -5677225972253037289, -3587156567961650936, -6013908981806048226, 4642836308204946745}, {-1649396590023813188, -5294615158763704979, -8453345727685579576, -6562227391711783696, 6005511277454312879, 428067013794846914, 3260159080320273396, 8755202871573950920, 2347601768516170066, 4351261168140205016, 144548352979333307, 3216703020666103843, 8068569130633235222, 73635160614199464, 5957996910434006537, 1522155580329432485, 8978865460069461751, -6356494065913399483, -6269672376291839834, 8661288637922116816, -3071862073915846662}, {3139703080103909617, 5060303770350133677, -9038189776136757592, 6475629134405031081, -4200138507834359247, -6616597986943562904, -9182652015215040485, 3587156567961650936, 4190148976563264696, 8835907035234764618, -3188658580083762062, -998965523972364457, -8339688293622627694, -7205174067766051931, -7197264391798148321, -1817006447852592371, -3559401617637445023, -7484684385930861654, -7945723033310657380, -82400472405788441, 6634344832829482815}, {6700716758476728675, 6583105520169638335, 4919098475793038902, 8915490662824011092, -5753675083587560012, -6483325029550795329, -2683644756866374132, 6269672376291839834, -2611880318102788365, -6457654263622777726, -1208767761926845572, -4718556729423560765, 1173276037813221284, 7026998529876207782, 1468715174462490628, 3736660348595904475, 1115205761371226904, 6229382032328023655, -5376408065490037394, -8093394969642063852, 7261056714825878447}, {-7293430482009915052, 4479900970871030779, 499061417387055026, 6353882388240598221, -8618492024460731259, -3859858650146632439, -7827411559372776316, 7945723033310657380, 5196774388126657972, 4450523365106300738, -7245590372480107529, 2588207374381284384, 8083251165634961908, -4556719567088785909, 2440535438049877912, 3647420024649630479, 7458601279409657900, -738663371935711349, 4851866109967131379, 8223667187194978649, 858611767861421443}, {-7526910966950853325, -4472817044260349423, 7666293887982501781, -8849614057606142576, 5383225988762568034, -1408015289300117397, -1158201447359495767, 5376408065490037394, 2985627120993021903, 3516759042298136514, -1990592997265783068, 6234264183153924965, 557328692621064770, -7126030846875701179, 1387595362129389392, 9012271426381203420, -3120438659144421371, 6162609214852881781, -7340722769650263237, 2085023893287980900, -6233299663466353406}, {-6760694366934238640, -4674910542979550620, 4475547591414133811, 6051359686343020705, -6423294259618517042, -6540173862801837451, 8354033745730062915, -4851866109967131379, -9024415500442207545, -8259558431989038902, 841775862989537573, 4675089720508933879, -4818337220042403771, -8812833845057620681, 1908247503829783400, -6844321652350119156, -6107378630105754936, 7860507775750864181, 5891832767236782049, -256631765213152270, -5809203298186119909}, {6407319678217419255, 8185842205936319728, 873440673033250734, 1698666075226370980, 4220691942647051781, 677897798342024069, 372969959157452107, 7340722769650263237, -3097741542124051843, -7321970698577828431, -7647076088662383942, 4641774534683003964, 1968165053656886044, 8985875491605247907, -6720878534589436685, -8569101918382527495, 2892166427849667300, -215035908011776799, 5495043791253677524, 5123964614829036913, 2637597480459488148}, {9210928248514173216, -6227404980978572124, 933577049576996601, -6939699083313749304, -7838157178658547295, -1301665976509717482, -8613266365216860115, -5891832767236782049, -1855186916858629724, 3933091759841512987, 1620838871541619312, 5580487003864858624, -6331647556995159831, -5003665614666817161, 4812618851457113488, -865921490118130359, -8627505450433207291, 9008778076833050332, -5676935490532860195, 3424958666187783418, -14883295726773428}, {1749614748109239781, -2517615358476756464, 2642328106679597962, 9188020636295383592, -5018452080576240533, 2532941731864550952, -45877483026531870, -5495043791253677524, -1793514780413186045, -7432407644906474955, -1398878454916929987, -7797414165431586988, -2556569947419229666, 4166838715960782956, 8579244783212070522, 8985932763382082701, 6787201829301350995, 2937842573819072707, 8953317133158213966, -9188819273580643737, 1637572669799982006}, {-434956095310875167, -5559522987273219931, -7255745471618444581, 3622089632385549785, -1503928369497874331, 1460648313631807820, 8293801321493032571, 5676935490532860195, -7368516331005470881, -4341907139459135067, 5249177000654443360, 7257025793621400653, -4221965469595339833, -1117023892147457946, 3745142010573617111, -1693845281345499409, 8228454794195032570, -4499734200993788081, -2673609481026117920, 2102227504213645831, -1272762689309547226}, {2938569974463796139, -423781317138371341, -4973711743407349112, -8205265002470482683, -192064895459871534, 5889679817359071820, 2262054368639967792, -8953317133158213966, 4926159369305742374, 6673001786214000292, -4505695512589444070, -8058619710336481452, -5337186112356403386, -2512266869277042101, 3537034734428502029, 1118308580193761931, 4122535637818595391, 9065906705557647875, 6534609512849533161, 347710852169509775, -3909791310992383766}, {7941154451549596168, -4702429993002479117, -3930453316708387217, 2484433978001393914, -4472801549528318354, -4764526407520749291, -5373215462654583308, 2673609481026117920, -4428309983268532964, -5662858571570163989, 2594034916141280065, -2363574230592235822, -7812740538819381476, 8394339669487223088, 657746102603391873, 2254337768013280381, 4713415042479530749, 2554438808486073126, 5240844218012357322, -5133626788979238404, -524624316842066074}, {-7381145262489936103, -5084278353713463966, 7084525644016302633, -9105399176538973123, -3630880829892807626, -4290746831584080646, 954261816142482105, -6534609512849533161, -2072668621833100847, 2570109155067717501, 7890716557900611409, -4473977775486566476, -7090843606446738852, 767647727272552152, 2304529996394213575, -7108209766823475911, -8617100708905997639, -4088046616297208889, 6967752810492811130, 7755100085688270291, 1652744396295799073}, {1993769751187080035, -8316552968000956844, -3274992380416501939, 1590822281546719643, 1571635508203877115, -1403586562243737117, -6177182548574007098, -5240844218012357322, -7406455996135661382, -5768605943966038447, 4731130883841392540, -2309146708759000173, 4922225863152369685, -4310088560109256107, 205109158916912796, 8105890074705308243, 4891687690777097719, 819370885353975403, 2721433597980078066, -8148737330683288286, 239335259828698325}
		};

static inline void UNROLLED_m1_or_b1_mns_mod_mult_ext_red(int64_t* restrict R,
	const restrict poly A)
{

R[0] = (uint64_t) ((uint64_t) A->t[0] * 1723179155536657041) + ((uint64_t) A->t[1] * -3343286559992206125) + ((uint64_t) A->t[2] * -7094497581211457900) + ((uint64_t) A->t[3] * -7668875979584949872) + ((uint64_t) A->t[4] * 6399559884076931514) + ((uint64_t) A->t[5] * 8598246789425451923) + ((uint64_t) A->t[6] * -911407294447105645) + ((uint64_t) A->t[7] * -1649396590023813188) + ((uint64_t) A->t[8] * 3139703080103909617) + ((uint64_t) A->t[9] * 6700716758476728675) + ((uint64_t) A->t[10] * -7293430482009915052) + ((uint64_t) A->t[11] * -7526910966950853325) + ((uint64_t) A->t[12] * -6760694366934238640) + ((uint64_t) A->t[13] * 6407319678217419255) + ((uint64_t) A->t[14] * 9210928248514173216) + ((uint64_t) A->t[15] * 1749614748109239781) + ((uint64_t) A->t[16] * -434956095310875167) + ((uint64_t) A->t[17] * 2938569974463796139) + ((uint64_t) A->t[18] * 7941154451549596168) + ((uint64_t) A->t[19] * -7381145262489936103) + ((uint64_t) A->t[20] * 1993769751187080035);
R[1] = (uint64_t) ((uint64_t) A->t[0] * -5100465523293164399) + ((uint64_t) A->t[1] * 8424583181178711355) + ((uint64_t) A->t[2] * 6435263230642135939) + ((uint64_t) A->t[3] * 8856842406953855396) + ((uint64_t) A->t[4] * -5070089340788953515) + ((uint64_t) A->t[5] * -2982518287249063747) + ((uint64_t) A->t[6] * -418335542268582079) + ((uint64_t) A->t[7] * -5294615158763704979) + ((uint64_t) A->t[8] * 5060303770350133677) + ((uint64_t) A->t[9] * 6583105520169638335) + ((uint64_t) A->t[10] * 4479900970871030779) + ((uint64_t) A->t[11] * -4472817044260349423) + ((uint64_t) A->t[12] * -4674910542979550620) + ((uint64_t) A->t[13] * 8185842205936319728) + ((uint64_t) A->t[14] * -6227404980978572124) + ((uint64_t) A->t[15] * -2517615358476756464) + ((uint64_t) A->t[16] * -5559522987273219931) + ((uint64_t) A->t[17] * -423781317138371341) + ((uint64_t) A->t[18] * -4702429993002479117) + ((uint64_t) A->t[19] * -5084278353713463966) + ((uint64_t) A->t[20] * -8316552968000956844);
R[2] = (uint64_t) ((uint64_t) A->t[0] * 3117408957988992554) + ((uint64_t) A->t[1] * 5248625386954308295) + ((uint64_t) A->t[2] * 4994604193123571361) + ((uint64_t) A->t[3] * 3400853374071647921) + ((uint64_t) A->t[4] * -5038156959997750350) + ((uint64_t) A->t[5] * -4505722448758033822) + ((uint64_t) A->t[6] * -2297167410749342125) + ((uint64_t) A->t[7] * -8453345727685579576) + ((uint64_t) A->t[8] * -9038189776136757592) + ((uint64_t) A->t[9] * 4919098475793038902) + ((uint64_t) A->t[10] * 499061417387055026) + ((uint64_t) A->t[11] * 7666293887982501781) + ((uint64_t) A->t[12] * 4475547591414133811) + ((uint64_t) A->t[13] * 873440673033250734) + ((uint64_t) A->t[14] * 933577049576996601) + ((uint64_t) A->t[15] * 2642328106679597962) + ((uint64_t) A->t[16] * -7255745471618444581) + ((uint64_t) A->t[17] * -4973711743407349112) + ((uint64_t) A->t[18] * -3930453316708387217) + ((uint64_t) A->t[19] * 7084525644016302633) + ((uint64_t) A->t[20] * -3274992380416501939);
R[3] = (uint64_t) ((uint64_t) A->t[0] * -7662414143119147149) + ((uint64_t) A->t[1] * 3108270709789768978) + ((uint64_t) A->t[2] * 674223702238679354) + ((uint64_t) A->t[3] * -1019748189046954318) + ((uint64_t) A->t[4] * 4806413810878218022) + ((uint64_t) A->t[5] * 1320300008479456550) + ((uint64_t) A->t[6] * -8925423059182056799) + ((uint64_t) A->t[7] * -6562227391711783696) + ((uint64_t) A->t[8] * 6475629134405031081) + ((uint64_t) A->t[9] * 8915490662824011092) + ((uint64_t) A->t[10] * 6353882388240598221) + ((uint64_t) A->t[11] * -8849614057606142576) + ((uint64_t) A->t[12] * 6051359686343020705) + ((uint64_t) A->t[13] * 1698666075226370980) + ((uint64_t) A->t[14] * -6939699083313749304) + ((uint64_t) A->t[15] * 9188020636295383592) + ((uint64_t) A->t[16] * 3622089632385549785) + ((uint64_t) A->t[17] * -8205265002470482683) + ((uint64_t) A->t[18] * 2484433978001393914) + ((uint64_t) A->t[19] * -9105399176538973123) + ((uint64_t) A->t[20] * 1590822281546719643);
R[4] = (uint64_t) ((uint64_t) A->t[0] * -337616256309547358) + ((uint64_t) A->t[1] * -2583117953450311565) + ((uint64_t) A->t[2] * -866460599379124194) + ((uint64_t) A->t[3] * 2011704384783300798) + ((uint64_t) A->t[4] * 8923804810847504388) + ((uint64_t) A->t[5] * -4425868796920404676) + ((uint64_t) A->t[6] * -3984103034202641416) + ((uint64_t) A->t[7] * 6005511277454312879) + ((uint64_t) A->t[8] * -4200138507834359247) + ((uint64_t) A->t[9] * -5753675083587560012) + ((uint64_t) A->t[10] * -8618492024460731259) + ((uint64_t) A->t[11] * 5383225988762568034) + ((uint64_t) A->t[12] * -6423294259618517042) + ((uint64_t) A->t[13] * 4220691942647051781) + ((uint64_t) A->t[14] * -7838157178658547295) + ((uint64_t) A->t[15] * -5018452080576240533) + ((uint64_t) A->t[16] * -1503928369497874331) + ((uint64_t) A->t[17] * -192064895459871534) + ((uint64_t) A->t[18] * -4472801549528318354) + ((uint64_t) A->t[19] * -3630880829892807626) + ((uint64_t) A->t[20] * 1571635508203877115);
R[5] = (uint64_t) ((uint64_t) A->t[0] * 6349130671836552225) + ((uint64_t) A->t[1] * -289738592087600061) + ((uint64_t) A->t[2] * -8501067472485902871) + ((uint64_t) A->t[3] * -1153957640947741769) + ((uint64_t) A->t[4] * 1331307366757943534) + ((uint64_t) A->t[5] * -3099055009076189665) + ((uint64_t) A->t[6] * -1214647163517306649) + ((uint64_t) A->t[7] * 428067013794846914) + ((uint64_t) A->t[8] * -6616597986943562904) + ((uint64_t) A->t[9] * -6483325029550795329) + ((uint64_t) A->t[10] * -3859858650146632439) + ((uint64_t) A->t[11] * -1408015289300117397) + ((uint64_t) A->t[12] * -6540173862801837451) + ((uint64_t) A->t[13] * 677897798342024069) + ((uint64_t) A->t[14] * -1301665976509717482) + ((uint64_t) A->t[15] * 2532941731864550952) + ((uint64_t) A->t[16] * 1460648313631807820) + ((uint64_t) A->t[17] * 5889679817359071820) + ((uint64_t) A->t[18] * -4764526407520749291) + ((uint64_t) A->t[19] * -4290746831584080646) + ((uint64_t) A->t[20] * -1403586562243737117);
R[6] = (uint64_t) ((uint64_t) A->t[0] * -9120091874139530437) + ((uint64_t) A->t[1] * 4908955577301800801) + ((uint64_t) A->t[2] * 1446934150569454399) + ((uint64_t) A->t[3] * 6684840980970123582) + ((uint64_t) A->t[4] * 755819640931959500) + ((uint64_t) A->t[5] * -5906061739044863185) + ((uint64_t) A->t[6] * 7075974934114001392) + ((uint64_t) A->t[7] * 3260159080320273396) + ((uint64_t) A->t[8] * -9182652015215040485) + ((uint64_t) A->t[9] * -2683644756866374132) + ((uint64_t) A->t[10] * -7827411559372776316) + ((uint64_t) A->t[11] * -1158201447359495767) + ((uint64_t) A->t[12] * 8354033745730062915) + ((uint64_t) A->t[13] * 372969959157452107) + ((uint64_t) A->t[14] * -8613266365216860115) + ((uint64_t) A->t[15] * -45877483026531870) + ((uint64_t) A->t[16] * 8293801321493032571) + ((uint64_t) A->t[17] * 2262054368639967792) + ((uint64_t) A->t[18] * -5373215462654583308) + ((uint64_t) A->t[19] * 954261816142482105) + ((uint64_t) A->t[20] * -6177182548574007098);
R[7] = (uint64_t) ((uint64_t) A->t[0] * 5739495631608370243) + ((uint64_t) A->t[1] * -1360716798990039033) + ((uint64_t) A->t[2] * -6498788882741202981) + ((uint64_t) A->t[3] * 1308432915480086188) + ((uint64_t) A->t[4] * 5607685750899090879) + ((uint64_t) A->t[5] * 5199959565014425194) + ((uint64_t) A->t[6] * -5478936372358768175) + ((uint64_t) A->t[7] * 8755202871573950920) + ((uint64_t) A->t[8] * 3587156567961650936) + ((uint64_t) A->t[9] * 6269672376291839834) + ((uint64_t) A->t[10] * 7945723033310657380) + ((uint64_t) A->t[11] * 5376408065490037394) + ((uint64_t) A->t[12] * -4851866109967131379) + ((uint64_t) A->t[13] * 7340722769650263237) + ((uint64_t) A->t[14] * -5891832767236782049) + ((uint64_t) A->t[15] * -5495043791253677524) + ((uint64_t) A->t[16] * 5676935490532860195) + ((uint64_t) A->t[17] * -8953317133158213966) + ((uint64_t) A->t[18] * 2673609481026117920) + ((uint64_t) A->t[19] * -6534609512849533161) + ((uint64_t) A->t[20] * -5240844218012357322);
R[8] = (uint64_t) ((uint64_t) A->t[0] * -4253872982942639213) + ((uint64_t) A->t[1] * -519463480939987285) + ((uint64_t) A->t[2] * -5614914475871301069) + ((uint64_t) A->t[3] * -3424707813047014570) + ((uint64_t) A->t[4] * 9007700705069596109) + ((uint64_t) A->t[5] * -1317439723002407516) + ((uint64_t) A->t[6] * 2564258731537729908) + ((uint64_t) A->t[7] * 2347601768516170066) + ((uint64_t) A->t[8] * 4190148976563264696) + ((uint64_t) A->t[9] * -2611880318102788365) + ((uint64_t) A->t[10] * 5196774388126657972) + ((uint64_t) A->t[11] * 2985627120993021903) + ((uint64_t) A->t[12] * -9024415500442207545) + ((uint64_t) A->t[13] * -3097741542124051843) + ((uint64_t) A->t[14] * -1855186916858629724) + ((uint64_t) A->t[15] * -1793514780413186045) + ((uint64_t) A->t[16] * -7368516331005470881) + ((uint64_t) A->t[17] * 4926159369305742374) + ((uint64_t) A->t[18] * -4428309983268532964) + ((uint64_t) A->t[19] * -2072668621833100847) + ((uint64_t) A->t[20] * -7406455996135661382);
R[9] = (uint64_t) ((uint64_t) A->t[0] * 6659765521670242777) + ((uint64_t) A->t[1] * -7744428683971848379) + ((uint64_t) A->t[2] * 6517365058127240136) + ((uint64_t) A->t[3] * 184393437972266622) + ((uint64_t) A->t[4] * 1032023799841868367) + ((uint64_t) A->t[5] * -6301249966470933687) + ((uint64_t) A->t[6] * -8870318439684301450) + ((uint64_t) A->t[7] * 4351261168140205016) + ((uint64_t) A->t[8] * 8835907035234764618) + ((uint64_t) A->t[9] * -6457654263622777726) + ((uint64_t) A->t[10] * 4450523365106300738) + ((uint64_t) A->t[11] * 3516759042298136514) + ((uint64_t) A->t[12] * -8259558431989038902) + ((uint64_t) A->t[13] * -7321970698577828431) + ((uint64_t) A->t[14] * 3933091759841512987) + ((uint64_t) A->t[15] * -7432407644906474955) + ((uint64_t) A->t[16] * -4341907139459135067) + ((uint64_t) A->t[17] * 6673001786214000292) + ((uint64_t) A->t[18] * -5662858571570163989) + ((uint64_t) A->t[19] * 2570109155067717501) + ((uint64_t) A->t[20] * -5768605943966038447);
R[10] = (uint64_t) ((uint64_t) A->t[0] * -9004927234669490739) + ((uint64_t) A->t[1] * -5320599992505576042) + ((uint64_t) A->t[2] * 7731087943950153466) + ((uint64_t) A->t[3] * -7433064950294138433) + ((uint64_t) A->t[4] * -8677420985675473361) + ((uint64_t) A->t[5] * -8259665337173277807) + ((uint64_t) A->t[6] * 4691296202793970316) + ((uint64_t) A->t[7] * 144548352979333307) + ((uint64_t) A->t[8] * -3188658580083762062) + ((uint64_t) A->t[9] * -1208767761926845572) + ((uint64_t) A->t[10] * -7245590372480107529) + ((uint64_t) A->t[11] * -1990592997265783068) + ((uint64_t) A->t[12] * 841775862989537573) + ((uint64_t) A->t[13] * -7647076088662383942) + ((uint64_t) A->t[14] * 1620838871541619312) + ((uint64_t) A->t[15] * -1398878454916929987) + ((uint64_t) A->t[16] * 5249177000654443360) + ((uint64_t) A->t[17] * -4505695512589444070) + ((uint64_t) A->t[18] * 2594034916141280065) + ((uint64_t) A->t[19] * 7890716557900611409) + ((uint64_t) A->t[20] * 4731130883841392540);
R[11] = (uint64_t) ((uint64_t) A->t[0] * -471721386874854321) + ((uint64_t) A->t[1] * 6194959369401496701) + ((uint64_t) A->t[2] * -5986044791392753802) + ((uint64_t) A->t[3] * 1866770032543408789) + ((uint64_t) A->t[4] * 4329787156602225241) + ((uint64_t) A->t[5] * 4025482483761670510) + ((uint64_t) A->t[6] * -459706667972667444) + ((uint64_t) A->t[7] * 3216703020666103843) + ((uint64_t) A->t[8] * -998965523972364457) + ((uint64_t) A->t[9] * -4718556729423560765) + ((uint64_t) A->t[10] * 2588207374381284384) + ((uint64_t) A->t[11] * 6234264183153924965) + ((uint64_t) A->t[12] * 4675089720508933879) + ((uint64_t) A->t[13] * 4641774534683003964) + ((uint64_t) A->t[14] * 5580487003864858624) + ((uint64_t) A->t[15] * -7797414165431586988) + ((uint64_t) A->t[16] * 7257025793621400653) + ((uint64_t) A->t[17] * -8058619710336481452) + ((uint64_t) A->t[18] * -2363574230592235822) + ((uint64_t) A->t[19] * -4473977775486566476) + ((uint64_t) A->t[20] * -2309146708759000173);
R[12] = (uint64_t) ((uint64_t) A->t[0] * -5671680951889279515) + ((uint64_t) A->t[1] * -6772848331949286740) + ((uint64_t) A->t[2] * 3705496410742846894) + ((uint64_t) A->t[3] * -1720386535418242147) + ((uint64_t) A->t[4] * -1939885219689614593) + ((uint64_t) A->t[5] * -3920240549548986870) + ((uint64_t) A->t[6] * -5836114733462704838) + ((uint64_t) A->t[7] * 8068569130633235222) + ((uint64_t) A->t[8] * -8339688293622627694) + ((uint64_t) A->t[9] * 1173276037813221284) + ((uint64_t) A->t[10] * 8083251165634961908) + ((uint64_t) A->t[11] * 557328692621064770) + ((uint64_t) A->t[12] * -4818337220042403771) + ((uint64_t) A->t[13] * 1968165053656886044) + ((uint64_t) A->t[14] * -6331647556995159831) + ((uint64_t) A->t[15] * -2556569947419229666) + ((uint64_t) A->t[16] * -4221965469595339833) + ((uint64_t) A->t[17] * -5337186112356403386) + ((uint64_t) A->t[18] * -7812740538819381476) + ((uint64_t) A->t[19] * -7090843606446738852) + ((uint64_t) A->t[20] * 4922225863152369685);
R[13] = (uint64_t) ((uint64_t) A->t[0] * 3107141533783635363) + ((uint64_t) A->t[1] * -4917249658402624728) + ((uint64_t) A->t[2] * -8074310160861627171) + ((uint64_t) A->t[3] * 5231209885733077379) + ((uint64_t) A->t[4] * 4400725304721695505) + ((uint64_t) A->t[5] * -5474002903476903531) + ((uint64_t) A->t[6] * -4928460951940792116) + ((uint64_t) A->t[7] * 73635160614199464) + ((uint64_t) A->t[8] * -7205174067766051931) + ((uint64_t) A->t[9] * 7026998529876207782) + ((uint64_t) A->t[10] * -4556719567088785909) + ((uint64_t) A->t[11] * -7126030846875701179) + ((uint64_t) A->t[12] * -8812833845057620681) + ((uint64_t) A->t[13] * 8985875491605247907) + ((uint64_t) A->t[14] * -5003665614666817161) + ((uint64_t) A->t[15] * 4166838715960782956) + ((uint64_t) A->t[16] * -1117023892147457946) + ((uint64_t) A->t[17] * -2512266869277042101) + ((uint64_t) A->t[18] * 8394339669487223088) + ((uint64_t) A->t[19] * 767647727272552152) + ((uint64_t) A->t[20] * -4310088560109256107);
R[14] = (uint64_t) ((uint64_t) A->t[0] * -8029966457462904029) + ((uint64_t) A->t[1] * -5408571336386300368) + ((uint64_t) A->t[2] * 9061500759760043480) + ((uint64_t) A->t[3] * -801090066905633353) + ((uint64_t) A->t[4] * -5642856998916119937) + ((uint64_t) A->t[5] * 683371957555015743) + ((uint64_t) A->t[6] * -8679274374453865094) + ((uint64_t) A->t[7] * 5957996910434006537) + ((uint64_t) A->t[8] * -7197264391798148321) + ((uint64_t) A->t[9] * 1468715174462490628) + ((uint64_t) A->t[10] * 2440535438049877912) + ((uint64_t) A->t[11] * 1387595362129389392) + ((uint64_t) A->t[12] * 1908247503829783400) + ((uint64_t) A->t[13] * -6720878534589436685) + ((uint64_t) A->t[14] * 4812618851457113488) + ((uint64_t) A->t[15] * 8579244783212070522) + ((uint64_t) A->t[16] * 3745142010573617111) + ((uint64_t) A->t[17] * 3537034734428502029) + ((uint64_t) A->t[18] * 657746102603391873) + ((uint64_t) A->t[19] * 2304529996394213575) + ((uint64_t) A->t[20] * 205109158916912796);
R[15] = (uint64_t) ((uint64_t) A->t[0] * -4263065478964133283) + ((uint64_t) A->t[1] * -1607632023968496588) + ((uint64_t) A->t[2] * 7737013765939143403) + ((uint64_t) A->t[3] * 3953500174734205406) + ((uint64_t) A->t[4] * 14336183266524862) + ((uint64_t) A->t[5] * 5874761251956161917) + ((uint64_t) A->t[6] * 4787770660444838754) + ((uint64_t) A->t[7] * 1522155580329432485) + ((uint64_t) A->t[8] * -1817006447852592371) + ((uint64_t) A->t[9] * 3736660348595904475) + ((uint64_t) A->t[10] * 3647420024649630479) + ((uint64_t) A->t[11] * 9012271426381203420) + ((uint64_t) A->t[12] * -6844321652350119156) + ((uint64_t) A->t[13] * -8569101918382527495) + ((uint64_t) A->t[14] * -865921490118130359) + ((uint64_t) A->t[15] * 8985932763382082701) + ((uint64_t) A->t[16] * -1693845281345499409) + ((uint64_t) A->t[17] * 1118308580193761931) + ((uint64_t) A->t[18] * 2254337768013280381) + ((uint64_t) A->t[19] * -7108209766823475911) + ((uint64_t) A->t[20] * 8105890074705308243);
R[16] = (uint64_t) ((uint64_t) A->t[0] * 2954632563484047095) + ((uint64_t) A->t[1] * -4000053726930594291) + ((uint64_t) A->t[2] * 5509770742755983019) + ((uint64_t) A->t[3] * 1525436197624562769) + ((uint64_t) A->t[4] * -8769539054840475782) + ((uint64_t) A->t[5] * 8984826253791738763) + ((uint64_t) A->t[6] * 7389301036972873028) + ((uint64_t) A->t[7] * 8978865460069461751) + ((uint64_t) A->t[8] * -3559401617637445023) + ((uint64_t) A->t[9] * 1115205761371226904) + ((uint64_t) A->t[10] * 7458601279409657900) + ((uint64_t) A->t[11] * -3120438659144421371) + ((uint64_t) A->t[12] * -6107378630105754936) + ((uint64_t) A->t[13] * 2892166427849667300) + ((uint64_t) A->t[14] * -8627505450433207291) + ((uint64_t) A->t[15] * 6787201829301350995) + ((uint64_t) A->t[16] * 8228454794195032570) + ((uint64_t) A->t[17] * 4122535637818595391) + ((uint64_t) A->t[18] * 4713415042479530749) + ((uint64_t) A->t[19] * -8617100708905997639) + ((uint64_t) A->t[20] * 4891687690777097719);
R[17] = (uint64_t) ((uint64_t) A->t[0] * 8527210239954816076) + ((uint64_t) A->t[1] * -192052938321401705) + ((uint64_t) A->t[2] * -7897603075994842890) + ((uint64_t) A->t[3] * -667445797820617724) + ((uint64_t) A->t[4] * 2797875619493559638) + ((uint64_t) A->t[5] * -2051422885797929274) + ((uint64_t) A->t[6] * -5677225972253037289) + ((uint64_t) A->t[7] * -6356494065913399483) + ((uint64_t) A->t[8] * -7484684385930861654) + ((uint64_t) A->t[9] * 6229382032328023655) + ((uint64_t) A->t[10] * -738663371935711349) + ((uint64_t) A->t[11] * 6162609214852881781) + ((uint64_t) A->t[12] * 7860507775750864181) + ((uint64_t) A->t[13] * -215035908011776799) + ((uint64_t) A->t[14] * 9008778076833050332) + ((uint64_t) A->t[15] * 2937842573819072707) + ((uint64_t) A->t[16] * -4499734200993788081) + ((uint64_t) A->t[17] * 9065906705557647875) + ((uint64_t) A->t[18] * 2554438808486073126) + ((uint64_t) A->t[19] * -4088046616297208889) + ((uint64_t) A->t[20] * 819370885353975403);
R[18] = (uint64_t) ((uint64_t) A->t[0] * 6498788882741202981) + ((uint64_t) A->t[1] * -1308432915480086188) + ((uint64_t) A->t[2] * -5607685750899090879) + ((uint64_t) A->t[3] * -5199959565014425194) + ((uint64_t) A->t[4] * 5478936372358768175) + ((uint64_t) A->t[5] * -8755202871573950920) + ((uint64_t) A->t[6] * -3587156567961650936) + ((uint64_t) A->t[7] * -6269672376291839834) + ((uint64_t) A->t[8] * -7945723033310657380) + ((uint64_t) A->t[9] * -5376408065490037394) + ((uint64_t) A->t[10] * 4851866109967131379) + ((uint64_t) A->t[11] * -7340722769650263237) + ((uint64_t) A->t[12] * 5891832767236782049) + ((uint64_t) A->t[13] * 5495043791253677524) + ((uint64_t) A->t[14] * -5676935490532860195) + ((uint64_t) A->t[15] * 8953317133158213966) + ((uint64_t) A->t[16] * -2673609481026117920) + ((uint64_t) A->t[17] * 6534609512849533161) + ((uint64_t) A->t[18] * 5240844218012357322) + ((uint64_t) A->t[19] * 6967752810492811130) + ((uint64_t) A->t[20] * 2721433597980078066);
R[19] = (uint64_t) ((uint64_t) A->t[0] * 8203930166911793580) + ((uint64_t) A->t[1] * 3099590360184448647) + ((uint64_t) A->t[2] * -3976293014929128330) + ((uint64_t) A->t[3] * 2866414167292115559) + ((uint64_t) A->t[4] * -8542070091221079961) + ((uint64_t) A->t[5] * -2740631334122429475) + ((uint64_t) A->t[6] * -6013908981806048226) + ((uint64_t) A->t[7] * 8661288637922116816) + ((uint64_t) A->t[8] * -82400472405788441) + ((uint64_t) A->t[9] * -8093394969642063852) + ((uint64_t) A->t[10] * 8223667187194978649) + ((uint64_t) A->t[11] * 2085023893287980900) + ((uint64_t) A->t[12] * -256631765213152270) + ((uint64_t) A->t[13] * 5123964614829036913) + ((uint64_t) A->t[14] * 3424958666187783418) + ((uint64_t) A->t[15] * -9188819273580643737) + ((uint64_t) A->t[16] * 2102227504213645831) + ((uint64_t) A->t[17] * 347710852169509775) + ((uint64_t) A->t[18] * -5133626788979238404) + ((uint64_t) A->t[19] * 7755100085688270291) + ((uint64_t) A->t[20] * -8148737330683288286);
R[20] = (uint64_t) ((uint64_t) A->t[0] * -3208451819496092017) + ((uint64_t) A->t[1] * -2029180496765376013) + ((uint64_t) A->t[2] * 5796622657457704759) + ((uint64_t) A->t[3] * 3819395044168898443) + ((uint64_t) A->t[4] * 8792413506118333128) + ((uint64_t) A->t[5] * 755177059942532309) + ((uint64_t) A->t[6] * 4642836308204946745) + ((uint64_t) A->t[7] * -3071862073915846662) + ((uint64_t) A->t[8] * 6634344832829482815) + ((uint64_t) A->t[9] * 7261056714825878447) + ((uint64_t) A->t[10] * 858611767861421443) + ((uint64_t) A->t[11] * -6233299663466353406) + ((uint64_t) A->t[12] * -5809203298186119909) + ((uint64_t) A->t[13] * 2637597480459488148) + ((uint64_t) A->t[14] * -14883295726773428) + ((uint64_t) A->t[15] * 1637572669799982006) + ((uint64_t) A->t[16] * -1272762689309547226) + ((uint64_t) A->t[17] * -3909791310992383766) + ((uint64_t) A->t[18] * -524624316842066074) + ((uint64_t) A->t[19] * 1652744396295799073) + ((uint64_t) A->t[20] * 239335259828698325);
}


static inline void UNROLLED_m_or_b_mns_mod_mult_ext_red(__int128* restrict R,
	const restrict poly A)
{

R[0] = (__int128) ((__int128) ( A->t[0]) * -179771322659181) + ((__int128) ( A->t[1]) * 206391365188978) + ((__int128) ( A->t[2]) * -108881951339895) + ((__int128) ( A->t[3]) * -23758601698558) + ((__int128) ( A->t[4]) * -330736993595563) + ((__int128) ( A->t[5]) * 33040302780319) + ((__int128) ( A->t[6]) * 118827742063878) + ((__int128) ( A->t[7]) * 123690431849839) + ((__int128) ( A->t[8]) * 123623143066790) + ((__int128) ( A->t[9]) * -280338391056542) + ((__int128) ( A->t[10]) * 82654071170137) + ((__int128) ( A->t[11]) * -24539218706243) + ((__int128) ( A->t[12]) * 260375203221724) + ((__int128) ( A->t[13]) * 114457621917047) + ((__int128) ( A->t[14]) * -117432378517753) + ((__int128) ( A->t[15]) * 130222586182241) + ((__int128) ( A->t[16]) * -61604093914263) + ((__int128) ( A->t[17]) * -31378124995000) + ((__int128) ( A->t[18]) * -408784166461214) + ((__int128) ( A->t[19]) * 165895700916175) + ((__int128) ( A->t[20]) * -251623091256646);
R[1] = (__int128) ((__int128) ( A->t[0]) * -203547387569811) + ((__int128) ( A->t[1]) * 179771322659181) + ((__int128) ( A->t[2]) * -36485161881280) + ((__int128) ( A->t[3]) * -24539218706243) + ((__int128) ( A->t[4]) * 182038771451867) + ((__int128) ( A->t[5]) * -230822626656354) + ((__int128) ( A->t[6]) * -68311471452016) + ((__int128) ( A->t[7]) * -200089821043833) + ((__int128) ( A->t[8]) * 226807319495958) + ((__int128) ( A->t[9]) * -265847428919579) + ((__int128) ( A->t[10]) * -289644933409797) + ((__int128) ( A->t[11]) * -180525996979056) + ((__int128) ( A->t[12]) * 223048028876093) + ((__int128) ( A->t[13]) * 293986165771013) + ((__int128) ( A->t[14]) * -344950856761) + ((__int128) ( A->t[15]) * -86115009052058) + ((__int128) ( A->t[16]) * 69662178026562) + ((__int128) ( A->t[17]) * -15598933258230) + ((__int128) ( A->t[18]) * 9928766833249) + ((__int128) ( A->t[19]) * -32850850192292) + ((__int128) ( A->t[20]) * 141726773841254);
R[2] = (__int128) ((__int128) ( A->t[0]) * 97723339911592) + ((__int128) ( A->t[1]) * 203547387569811) + ((__int128) ( A->t[2]) * -149697851068847) + ((__int128) ( A->t[3]) * -180525996979056) + ((__int128) ( A->t[4]) * -4420361913998) + ((__int128) ( A->t[5]) * 283219677889437) + ((__int128) ( A->t[6]) * -231031240669673) + ((__int128) ( A->t[7]) * -30388921709633) + ((__int128) ( A->t[8]) * -118278370484044) + ((__int128) ( A->t[9]) * 202088545742957) + ((__int128) ( A->t[10]) * -130018315507701) + ((__int128) ( A->t[11]) * -342650279343741) + ((__int128) ( A->t[12]) * -147782726837598) + ((__int128) ( A->t[13]) * -92669180041456) + ((__int128) ( A->t[14]) * 242657412675379) + ((__int128) ( A->t[15]) * 98068290768353) + ((__int128) ( A->t[16]) * 269353668560419) + ((__int128) ( A->t[17]) * -158822850176874) + ((__int128) ( A->t[18]) * -38144676291946) + ((__int128) ( A->t[19]) * -72194024723952) + ((__int128) ( A->t[20]) * 77946528683544);
R[3] = (__int128) ((__int128) ( A->t[0]) * 139607331797058) + ((__int128) ( A->t[1]) * -97723339911592) + ((__int128) ( A->t[2]) * 17689746146138) + ((__int128) ( A->t[3]) * -342650279343741) + ((__int128) ( A->t[4]) * 130441810647315) + ((__int128) ( A->t[5]) * 7074708261835) + ((__int128) ( A->t[6]) * -168050615185874) + ((__int128) ( A->t[7]) * 55522678627659) + ((__int128) ( A->t[8]) * -31378124995000) + ((__int128) ( A->t[9]) * -26218874620421) + ((__int128) ( A->t[10]) * -185852737945785) + ((__int128) ( A->t[11]) * 146058049593715) + ((__int128) ( A->t[12]) * -45109831748870) + ((__int128) ( A->t[13]) * 71532717121659) + ((__int128) ( A->t[14]) * -191884336118380) + ((__int128) ( A->t[15]) * -103050080878321) + ((__int128) ( A->t[16]) * -151711192127962) + ((__int128) ( A->t[17]) * 23758601698558) + ((__int128) ( A->t[18]) * 219980972941385) + ((__int128) ( A->t[19]) * 38575974769188) + ((__int128) ( A->t[20]) * -43085440672489);
R[4] = (__int128) ((__int128) ( A->t[0]) * -65412162824320) + ((__int128) ( A->t[1]) * -139607331797058) + ((__int128) ( A->t[2]) * 110699009248223) + ((__int128) ( A->t[3]) * 146058049593715) + ((__int128) ( A->t[4]) * 1766683450735) + ((__int128) ( A->t[5]) * -19055005346404) + ((__int128) ( A->t[6]) * -145493540402783) + ((__int128) ( A->t[7]) * 57314435290626) + ((__int128) ( A->t[8]) * -15598933258230) + ((__int128) ( A->t[9]) * -3583741359063) + ((__int128) ( A->t[10]) * -76570774252623) + ((__int128) ( A->t[11]) * -171195666125042) + ((__int128) ( A->t[12]) * -52851455190653) + ((__int128) ( A->t[13]) * -218588062929759) + ((__int128) ( A->t[14]) * -22476283146383) + ((__int128) ( A->t[15]) * 126472173294060) + ((__int128) ( A->t[16]) * -92423817385128) + ((__int128) ( A->t[17]) * 24539218706243) + ((__int128) ( A->t[18]) * 5831870461574) + ((__int128) ( A->t[19]) * 101574010140196) + ((__int128) ( A->t[20]) * 38605013210545);
R[5] = (__int128) ((__int128) ( A->t[0]) * -185146965846771) + ((__int128) ( A->t[1]) * 65412162824320) + ((__int128) ( A->t[2]) * 11285892139944) + ((__int128) ( A->t[3]) * -171195666125042) + ((__int128) ( A->t[4]) * -159537775404183) + ((__int128) ( A->t[5]) * -60653684281090) + ((__int128) ( A->t[6]) * 129401385906600) + ((__int128) ( A->t[7]) * -449101804403004) + ((__int128) ( A->t[8]) * -158822850176874) + ((__int128) ( A->t[9]) * 184737045145519) + ((__int128) ( A->t[10]) * -82024795930993) + ((__int128) ( A->t[11]) * -347818406975418) + ((__int128) ( A->t[12]) * 108491629623341) + ((__int128) ( A->t[13]) * -235096046709409) + ((__int128) ( A->t[14]) * -141232618078646) + ((__int128) ( A->t[15]) * -162670682700388) + ((__int128) ( A->t[16]) * -9152083064544) + ((__int128) ( A->t[17]) * 180525996979056) + ((__int128) ( A->t[18]) * 162957335175340) + ((__int128) ( A->t[19]) * 17354747692364) + ((__int128) ( A->t[20]) * -88848431474459);
R[6] = (__int128) ((__int128) ( A->t[0]) * 91592034981076) + ((__int128) ( A->t[1]) * 185146965846771) + ((__int128) ( A->t[2]) * 204450518156438) + ((__int128) ( A->t[3]) * -347818406975418) + ((__int128) ( A->t[4]) * 194502877097735) + ((__int128) ( A->t[5]) * -331900578979340) + ((__int128) ( A->t[6]) * 156358383371737) + ((__int128) ( A->t[7]) * -111414118581187) + ((__int128) ( A->t[8]) * 23758601698558) + ((__int128) ( A->t[9]) * -249255544185326) + ((__int128) ( A->t[10]) * -123517978912091) + ((__int128) ( A->t[11]) * -78348516471064) + ((__int128) ( A->t[12]) * 194536814547508) + ((__int128) ( A->t[13]) * -180361369840733) + ((__int128) ( A->t[14]) * -88769152293709) + ((__int128) ( A->t[15]) * 232824653059722) + ((__int128) ( A->t[16]) * -47473133862429) + ((__int128) ( A->t[17]) * 342650279343741) + ((__int128) ( A->t[18]) * -12972831631541) + ((__int128) ( A->t[19]) * 118290727614458) + ((__int128) ( A->t[20]) * -191075323654354);
R[7] = (__int128) ((__int128) ( A->t[0]) * 50423321683928) + ((__int128) ( A->t[1]) * -91592034981076) + ((__int128) ( A->t[2]) * -19456912526927) + ((__int128) ( A->t[3]) * -78348516471064) + ((__int128) ( A->t[4]) * -152565807987601) + ((__int128) ( A->t[5]) * 41920045219400) + ((__int128) ( A->t[6]) * -99161187656737) + ((__int128) ( A->t[7]) * 40802082192743) + ((__int128) ( A->t[8]) * 24539218706243) + ((__int128) ( A->t[9]) * 154332974368390) + ((__int128) ( A->t[10]) * -117033898016705) + ((__int128) ( A->t[11]) * 8969887795396) + ((__int128) ( A->t[12]) * 280775307762721) + ((__int128) ( A->t[13]) * -114063208089842) + ((__int128) ( A->t[14]) * -230216239016435) + ((__int128) ( A->t[15]) * 139192473977637) + ((__int128) ( A->t[16]) * 136761578029100) + ((__int128) ( A->t[17]) * -146058049593715) + ((__int128) ( A->t[18]) * 215134906913584) + ((__int128) ( A->t[19]) * 149783192312185) + ((__int128) ( A->t[20]) * -110319949630073);
R[8] = (__int128) ((__int128) ( A->t[0]) * -69607085304957) + ((__int128) ( A->t[1]) * -50423321683928) + ((__int128) ( A->t[2]) * -34582950027463) + ((__int128) ( A->t[3]) * 8969887795396) + ((__int128) ( A->t[4]) * -145880281837492) + ((__int128) ( A->t[5]) * -231794132783743) + ((__int128) ( A->t[6]) * -123220401192003) + ((__int128) ( A->t[7]) * 326983007835657) + ((__int128) ( A->t[8]) * 180525996979056) + ((__int128) ( A->t[9]) * 69764222616732) + ((__int128) ( A->t[10]) * 132683958924342) + ((__int128) ( A->t[11]) * 246724162763536) + ((__int128) ( A->t[12]) * -147526422732499) + ((__int128) ( A->t[13]) * -69567336212391) + ((__int128) ( A->t[14]) * -122346411333433) + ((__int128) ( A->t[15]) * 160609153711478) + ((__int128) ( A->t[16]) * 236613394626749) + ((__int128) ( A->t[17]) * 171195666125042) + ((__int128) ( A->t[18]) * 28493464729414) + ((__int128) ( A->t[19]) * 103616811159840) + ((__int128) ( A->t[20]) * -147805913654194);
R[9] = (__int128) ((__int128) ( A->t[0]) * 38873688480592) + ((__int128) ( A->t[1]) * 69607085304957) + ((__int128) ( A->t[2]) * 60594521349292) + ((__int128) ( A->t[3]) * 246724162763536) + ((__int128) ( A->t[4]) * -165246283058699) + ((__int128) ( A->t[5]) * 289583499783714) + ((__int128) ( A->t[6]) * -239129073625003) + ((__int128) ( A->t[7]) * 56464001185817) + ((__int128) ( A->t[8]) * 342650279343741) + ((__int128) ( A->t[9]) * 93365869569463) + ((__int128) ( A->t[10]) * 100582902304464) + ((__int128) ( A->t[11]) * 63151809045672) + ((__int128) ( A->t[12]) * -81105296255202) + ((__int128) ( A->t[13]) * 348720855653699) + ((__int128) ( A->t[14]) * 150754418392647) + ((__int128) ( A->t[15]) * 161220099814025) + ((__int128) ( A->t[16]) * 151599042888788) + ((__int128) ( A->t[17]) * 347818406975418) + ((__int128) ( A->t[18]) * 149323261571534) + ((__int128) ( A->t[19]) * -66006615717496) + ((__int128) ( A->t[20]) * 14468091390468);
R[10] = (__int128) ((__int128) ( A->t[0]) * 10511290659129) + ((__int128) ( A->t[1]) * -38873688480592) + ((__int128) ( A->t[2]) * 104551440365388) + ((__int128) ( A->t[3]) * 63151809045672) + ((__int128) ( A->t[4]) * -128091136136956) + ((__int128) ( A->t[5]) * -137144679694345) + ((__int128) ( A->t[6]) * 117599511040348) + ((__int128) ( A->t[7]) * -41830176202418) + ((__int128) ( A->t[8]) * -146058049593715) + ((__int128) ( A->t[9]) * -180910822384870) + ((__int128) ( A->t[10]) * 145354723510610) + ((__int128) ( A->t[11]) * -37193046855197) + ((__int128) ( A->t[12]) * 211062931727498) + ((__int128) ( A->t[13]) * -214928445716838) + ((__int128) ( A->t[14]) * 54246323751136) + ((__int128) ( A->t[15]) * -140243127733518) + ((__int128) ( A->t[16]) * 89770612796575) + ((__int128) ( A->t[17]) * 78348516471064) + ((__int128) ( A->t[18]) * -43230418342413) + ((__int128) ( A->t[19]) * 310330056517893) + ((__int128) ( A->t[20]) * 96493619913324);
R[11] = (__int128) ((__int128) ( A->t[0]) * 195280776831572) + ((__int128) ( A->t[1]) * -10511290659129) + ((__int128) ( A->t[2]) * -112573247617040) + ((__int128) ( A->t[3]) * -37193046855197) + ((__int128) ( A->t[4]) * -54812556359875) + ((__int128) ( A->t[5]) * 14848173833069) + ((__int128) ( A->t[6]) * -32476532870278) + ((__int128) ( A->t[7]) * 47691243463445) + ((__int128) ( A->t[8]) * 171195666125042) + ((__int128) ( A->t[9]) * 186842716503842) + ((__int128) ( A->t[10]) * 214697552785237) + ((__int128) ( A->t[11]) * 14562279786376) + ((__int128) ( A->t[12]) * 111102003897733) + ((__int128) ( A->t[13]) * 179677495937124) + ((__int128) ( A->t[14]) * 182159389344709) + ((__int128) ( A->t[15]) * 141034453080436) + ((__int128) ( A->t[16]) * 175452775969576) + ((__int128) ( A->t[17]) * -8969887795396) + ((__int128) ( A->t[18]) * -120786215206591) + ((__int128) ( A->t[19]) * 174650638009086) + ((__int128) ( A->t[20]) * -69731963350714);
R[12] = (__int128) ((__int128) ( A->t[0]) * 195321826393787) + ((__int128) ( A->t[1]) * -195280776831572) + ((__int128) ( A->t[2]) * -77338829446807) + ((__int128) ( A->t[3]) * 14562279786376) + ((__int128) ( A->t[4]) * 201392402703745) + ((__int128) ( A->t[5]) * -7080263334215) + ((__int128) ( A->t[6]) * 18741340896226) + ((__int128) ( A->t[7]) * -19222564343927) + ((__int128) ( A->t[8]) * 347818406975418) + ((__int128) ( A->t[9]) * -89470623229475) + ((__int128) ( A->t[10]) * 171250167025453) + ((__int128) ( A->t[11]) * 175833119749466) + ((__int128) ( A->t[12]) * -230056052198709) + ((__int128) ( A->t[13]) * -30168491857555) + ((__int128) ( A->t[14]) * -45991192000701) + ((__int128) ( A->t[15]) * 13162437049078) + ((__int128) ( A->t[16]) * -276019155554113) + ((__int128) ( A->t[17]) * -246724162763536) + ((__int128) ( A->t[18]) * 175617403107899) + ((__int128) ( A->t[19]) * -103541753341131) + ((__int128) ( A->t[20]) * 120133784399800);
R[13] = (__int128) ((__int128) ( A->t[0]) * 121474693613971) + ((__int128) ( A->t[1]) * -195321826393787) + ((__int128) ( A->t[2]) * -30482421661483) + ((__int128) ( A->t[3]) * 175833119749466) + ((__int128) ( A->t[4]) * 52604297490848) + ((__int128) ( A->t[5]) * 108322705580002) + ((__int128) ( A->t[6]) * 45244254357650) + ((__int128) ( A->t[7]) * 277068088339131) + ((__int128) ( A->t[8]) * 78348516471064) + ((__int128) ( A->t[9]) * -82716397178657) + ((__int128) ( A->t[10]) * 377349991794835) + ((__int128) ( A->t[11]) * -65358767445050) + ((__int128) ( A->t[12]) * 71604118103668) + ((__int128) ( A->t[13]) * 32643157695023) + ((__int128) ( A->t[14]) * -2565453395738) + ((__int128) ( A->t[15]) * 167465885614672) + ((__int128) ( A->t[16]) * 278539831055390) + ((__int128) ( A->t[17]) * -63151809045672) + ((__int128) ( A->t[18]) * -47432084300214) + ((__int128) ( A->t[19]) * 73120938160161) + ((__int128) ( A->t[20]) * 696940089268);
R[14] = (__int128) ((__int128) ( A->t[0]) * 74815449048504) + ((__int128) ( A->t[1]) * -121474693613971) + ((__int128) ( A->t[2]) * -44770808313058) + ((__int128) ( A->t[3]) * -65358767445050) + ((__int128) ( A->t[4]) * 83297278860586) + ((__int128) ( A->t[5]) * 283013141264512) + ((__int128) ( A->t[6]) * 34377273326925) + ((__int128) ( A->t[7]) * 3955163006531) + ((__int128) ( A->t[8]) * -8969887795396) + ((__int128) ( A->t[9]) * -143077910912916) + ((__int128) ( A->t[10]) * 374688715807679) + ((__int128) ( A->t[11]) * -61811571533395) + ((__int128) ( A->t[12]) * 80439584580963) + ((__int128) ( A->t[13]) * -68570626250733) + ((__int128) ( A->t[14]) * 555235606523) + ((__int128) ( A->t[15]) * 77380902444242) + ((__int128) ( A->t[16]) * -329962371717459) + ((__int128) ( A->t[17]) * 37193046855197) + ((__int128) ( A->t[18]) * 62914445249284) + ((__int128) ( A->t[19]) * -214156141629787) + ((__int128) ( A->t[20]) * -340239025841617);
R[15] = (__int128) ((__int128) ( A->t[0]) * 47760729570022) + ((__int128) ( A->t[1]) * -74815449048504) + ((__int128) ( A->t[2]) * 380940985490010) + ((__int128) ( A->t[3]) * -61811571533395) + ((__int128) ( A->t[4]) * -330226169262951) + ((__int128) ( A->t[5]) * 60197722388635) + ((__int128) ( A->t[6]) * -215334459823375) + ((__int128) ( A->t[7]) * 137359504727279) + ((__int128) ( A->t[8]) * -246724162763536) + ((__int128) ( A->t[9]) * 61858431389981) + ((__int128) ( A->t[10]) * 56662175566953) + ((__int128) ( A->t[11]) * -113403659747979) + ((__int128) ( A->t[12]) * -133478073262302) + ((__int128) ( A->t[13]) * -294966115781259) + ((__int128) ( A->t[14]) * -11527461565070) + ((__int128) ( A->t[15]) * 47205493963499) + ((__int128) ( A->t[16]) * -8345637848274) + ((__int128) ( A->t[17]) * -14562279786376) + ((__int128) ( A->t[18]) * 189954150061282) + ((__int128) ( A->t[19]) * 348271598105821) + ((__int128) ( A->t[20]) * -163058453116135);
R[16] = (__int128) ((__int128) ( A->t[0]) * 208831823490977) + ((__int128) ( A->t[1]) * -47760729570022) + ((__int128) ( A->t[2]) * 40307882535561) + ((__int128) ( A->t[3]) * -113403659747979) + ((__int128) ( A->t[4]) * 163126464714936) + ((__int128) ( A->t[5]) * -31795570614717) + ((__int128) ( A->t[6]) * 157733190006185) + ((__int128) ( A->t[7]) * -193706081576687) + ((__int128) ( A->t[8]) * -63151809045672) + ((__int128) ( A->t[9]) * -126095517803690) + ((__int128) ( A->t[10]) * 206308443092674) + ((__int128) ( A->t[11]) * 59139185242022) + ((__int128) ( A->t[12]) * -107013080611744) + ((__int128) ( A->t[13]) * 50328710160132) + ((__int128) ( A->t[14]) * 78149855834459) + ((__int128) ( A->t[15]) * 220359285056047) + ((__int128) ( A->t[16]) * -7184305690658) + ((__int128) ( A->t[17]) * -175833119749466) + ((__int128) ( A->t[18]) * 124544323410306) + ((__int128) ( A->t[19]) * 122271737703816) + ((__int128) ( A->t[20]) * -225382854713165);
R[17] = (__int128) ((__int128) ( A->t[0]) * -46404209401559) + ((__int128) ( A->t[1]) * -208831823490977) + ((__int128) ( A->t[2]) * 359978667996000) + ((__int128) ( A->t[3]) * 59139185242022) + ((__int128) ( A->t[4]) * -106004947856896) + ((__int128) ( A->t[5]) * -285815649754287) + ((__int128) ( A->t[6]) * -380288554683219) + ((__int128) ( A->t[7]) * 226021021175935) + ((__int128) ( A->t[8]) * 37193046855197) + ((__int128) ( A->t[9]) * -223491298477621) + ((__int128) ( A->t[10]) * -29125901493020) + ((__int128) ( A->t[11]) * 15689062497500) + ((__int128) ( A->t[12]) * -27763175513524) + ((__int128) ( A->t[13]) * 121929692590212) + ((__int128) ( A->t[14]) * -151326039337456) + ((__int128) ( A->t[15]) * -124554065236018) + ((__int128) ( A->t[16]) * -40644877270009) + ((__int128) ( A->t[17]) * 65358767445050) + ((__int128) ( A->t[18]) * 250841706717530) + ((__int128) ( A->t[19]) * -35524597280386) + ((__int128) ( A->t[20]) * -29432246597782);
R[18] = (__int128) ((__int128) ( A->t[0]) * -2492119627905) + ((__int128) ( A->t[1]) * 46404209401559) + ((__int128) ( A->t[2]) * 60146909674496) + ((__int128) ( A->t[3]) * 15689062497500) + ((__int128) ( A->t[4]) * -50734072645628) + ((__int128) ( A->t[5]) * 163928163092693) + ((__int128) ( A->t[6]) * -216622225732728) + ((__int128) ( A->t[7]) * 122153803828266) + ((__int128) ( A->t[8]) * -14562279786376) + ((__int128) ( A->t[9]) * 35357971284190) + ((__int128) ( A->t[10]) * 161568895550014) + ((__int128) ( A->t[11]) * 7799466629115) + ((__int128) ( A->t[12]) * -186555388614248) + ((__int128) ( A->t[13]) * -90045115254567) + ((__int128) ( A->t[14]) * -321339833218856) + ((__int128) ( A->t[15]) * 148833919709551) + ((__int128) ( A->t[16]) * -18026060711946) + ((__int128) ( A->t[17]) * 61811571533395) + ((__int128) ( A->t[18]) * -79783256922960) + ((__int128) ( A->t[19]) * -155994092610531) + ((__int128) ( A->t[20]) * -80885110712746);
R[19] = (__int128) ((__int128) ( A->t[0]) * -228765971081341) + ((__int128) ( A->t[1]) * 2492119627905) + ((__int128) ( A->t[2]) * -23985166380056) + ((__int128) ( A->t[3]) * 7799466629115) + ((__int128) ( A->t[4]) * -115285451875537) + ((__int128) ( A->t[5]) * -154854120270798) + ((__int128) ( A->t[6]) * 27692442145831) + ((__int128) ( A->t[7]) * -95876712793209) + ((__int128) ( A->t[8]) * -175833119749466) + ((__int128) ( A->t[9]) * -241670367234417) + ((__int128) ( A->t[10]) * 105770805007110) + ((__int128) ( A->t[11]) * 79411425088437) + ((__int128) ( A->t[12]) * 149650220383274) + ((__int128) ( A->t[13]) * 16959959761373) + ((__int128) ( A->t[14]) * -258782267359882) + ((__int128) ( A->t[15]) * 92573862137515) + ((__int128) ( A->t[16]) * 183988414898359) + ((__int128) ( A->t[17]) * 113403659747979) + ((__int128) ( A->t[18]) * -232107065780459) + ((__int128) ( A->t[19]) * -318605066931006) + ((__int128) ( A->t[20]) * 182051145456537);
R[20] = (__int128) ((__int128) ( A->t[0]) * -103195682594489) + ((__int128) ( A->t[1]) * 228765971081341) + ((__int128) ( A->t[2]) * -60956341086516) + ((__int128) ( A->t[3]) * 79411425088437) + ((__int128) ( A->t[4]) * -18459036859474) + ((__int128) ( A->t[5]) * -85591876181894) + ((__int128) ( A->t[6]) * 39997098192355) + ((__int128) ( A->t[7]) * 21669166984735) + ((__int128) ( A->t[8]) * 65358767445050) + ((__int128) ( A->t[9]) * 39107495410429) + ((__int128) ( A->t[10]) * -65379919686833) + ((__int128) ( A->t[11]) * -11879300849279) + ((__int128) ( A->t[12]) * -3745571268686) + ((__int128) ( A->t[13]) * 14286916532255) + ((__int128) ( A->t[14]) * -154996954420711) + ((__int128) ( A->t[15]) * 155586584765393) + ((__int128) ( A->t[16]) * 53380985695455) + ((__int128) ( A->t[17]) * -59139185242022) + ((__int128) ( A->t[18]) * 52265979601954) + ((__int128) ( A->t[19]) * -59291679227617) + ((__int128) ( A->t[20]) * 379702761516274);
}


static inline void UNROLLED_mns_mod_mult_ext_red(__int128* restrict R,
const restrict poly A, const restrict poly B)
{

R[0] = (__int128) ((__int128) A->t[1] * B->t[20] * LAMBDA) + ((__int128) A->t[2] * B->t[19] * LAMBDA) + ((__int128) A->t[3] * B->t[18] * LAMBDA) + ((__int128) A->t[4] * B->t[17] * LAMBDA) + ((__int128) A->t[5] * B->t[16] * LAMBDA) + ((__int128) A->t[6] * B->t[15] * LAMBDA) + ((__int128) A->t[7] * B->t[14] * LAMBDA) + ((__int128) A->t[8] * B->t[13] * LAMBDA) + ((__int128) A->t[9] * B->t[12] * LAMBDA) + ((__int128) A->t[10] * B->t[11] * LAMBDA) + ((__int128) A->t[11] * B->t[10] * LAMBDA) + ((__int128) A->t[12] * B->t[9] * LAMBDA) + ((__int128) A->t[13] * B->t[8] * LAMBDA) + ((__int128) A->t[14] * B->t[7] * LAMBDA) + ((__int128) A->t[15] * B->t[6] * LAMBDA) + ((__int128) A->t[16] * B->t[5] * LAMBDA) + ((__int128) A->t[17] * B->t[4] * LAMBDA) + ((__int128) A->t[18] * B->t[3] * LAMBDA) + ((__int128) A->t[19] * B->t[2] * LAMBDA) + ((__int128) A->t[20] * B->t[1] * LAMBDA) + ((__int128) A->t[0] * B->t[0]);
R[1] = (__int128) ((__int128) A->t[2] * B->t[20] * LAMBDA) + ((__int128) A->t[3] * B->t[19] * LAMBDA) + ((__int128) A->t[4] * B->t[18] * LAMBDA) + ((__int128) A->t[5] * B->t[17] * LAMBDA) + ((__int128) A->t[6] * B->t[16] * LAMBDA) + ((__int128) A->t[7] * B->t[15] * LAMBDA) + ((__int128) A->t[8] * B->t[14] * LAMBDA) + ((__int128) A->t[9] * B->t[13] * LAMBDA) + ((__int128) A->t[10] * B->t[12] * LAMBDA) + ((__int128) A->t[11] * B->t[11] * LAMBDA) + ((__int128) A->t[12] * B->t[10] * LAMBDA) + ((__int128) A->t[13] * B->t[9] * LAMBDA) + ((__int128) A->t[14] * B->t[8] * LAMBDA) + ((__int128) A->t[15] * B->t[7] * LAMBDA) + ((__int128) A->t[16] * B->t[6] * LAMBDA) + ((__int128) A->t[17] * B->t[5] * LAMBDA) + ((__int128) A->t[18] * B->t[4] * LAMBDA) + ((__int128) A->t[19] * B->t[3] * LAMBDA) + ((__int128) A->t[20] * B->t[2] * LAMBDA) + ((__int128) A->t[0] * B->t[1]) + ((__int128) A->t[1] * B->t[0]);
R[2] = (__int128) ((__int128) A->t[3] * B->t[20] * LAMBDA) + ((__int128) A->t[4] * B->t[19] * LAMBDA) + ((__int128) A->t[5] * B->t[18] * LAMBDA) + ((__int128) A->t[6] * B->t[17] * LAMBDA) + ((__int128) A->t[7] * B->t[16] * LAMBDA) + ((__int128) A->t[8] * B->t[15] * LAMBDA) + ((__int128) A->t[9] * B->t[14] * LAMBDA) + ((__int128) A->t[10] * B->t[13] * LAMBDA) + ((__int128) A->t[11] * B->t[12] * LAMBDA) + ((__int128) A->t[12] * B->t[11] * LAMBDA) + ((__int128) A->t[13] * B->t[10] * LAMBDA) + ((__int128) A->t[14] * B->t[9] * LAMBDA) + ((__int128) A->t[15] * B->t[8] * LAMBDA) + ((__int128) A->t[16] * B->t[7] * LAMBDA) + ((__int128) A->t[17] * B->t[6] * LAMBDA) + ((__int128) A->t[18] * B->t[5] * LAMBDA) + ((__int128) A->t[19] * B->t[4] * LAMBDA) + ((__int128) A->t[20] * B->t[3] * LAMBDA) + ((__int128) A->t[0] * B->t[2]) + ((__int128) A->t[1] * B->t[1]) + ((__int128) A->t[2] * B->t[0]);
R[3] = (__int128) ((__int128) A->t[4] * B->t[20] * LAMBDA) + ((__int128) A->t[5] * B->t[19] * LAMBDA) + ((__int128) A->t[6] * B->t[18] * LAMBDA) + ((__int128) A->t[7] * B->t[17] * LAMBDA) + ((__int128) A->t[8] * B->t[16] * LAMBDA) + ((__int128) A->t[9] * B->t[15] * LAMBDA) + ((__int128) A->t[10] * B->t[14] * LAMBDA) + ((__int128) A->t[11] * B->t[13] * LAMBDA) + ((__int128) A->t[12] * B->t[12] * LAMBDA) + ((__int128) A->t[13] * B->t[11] * LAMBDA) + ((__int128) A->t[14] * B->t[10] * LAMBDA) + ((__int128) A->t[15] * B->t[9] * LAMBDA) + ((__int128) A->t[16] * B->t[8] * LAMBDA) + ((__int128) A->t[17] * B->t[7] * LAMBDA) + ((__int128) A->t[18] * B->t[6] * LAMBDA) + ((__int128) A->t[19] * B->t[5] * LAMBDA) + ((__int128) A->t[20] * B->t[4] * LAMBDA) + ((__int128) A->t[0] * B->t[3]) + ((__int128) A->t[1] * B->t[2]) + ((__int128) A->t[2] * B->t[1]) + ((__int128) A->t[3] * B->t[0]);
R[4] = (__int128) ((__int128) A->t[5] * B->t[20] * LAMBDA) + ((__int128) A->t[6] * B->t[19] * LAMBDA) + ((__int128) A->t[7] * B->t[18] * LAMBDA) + ((__int128) A->t[8] * B->t[17] * LAMBDA) + ((__int128) A->t[9] * B->t[16] * LAMBDA) + ((__int128) A->t[10] * B->t[15] * LAMBDA) + ((__int128) A->t[11] * B->t[14] * LAMBDA) + ((__int128) A->t[12] * B->t[13] * LAMBDA) + ((__int128) A->t[13] * B->t[12] * LAMBDA) + ((__int128) A->t[14] * B->t[11] * LAMBDA) + ((__int128) A->t[15] * B->t[10] * LAMBDA) + ((__int128) A->t[16] * B->t[9] * LAMBDA) + ((__int128) A->t[17] * B->t[8] * LAMBDA) + ((__int128) A->t[18] * B->t[7] * LAMBDA) + ((__int128) A->t[19] * B->t[6] * LAMBDA) + ((__int128) A->t[20] * B->t[5] * LAMBDA) + ((__int128) A->t[0] * B->t[4]) + ((__int128) A->t[1] * B->t[3]) + ((__int128) A->t[2] * B->t[2]) + ((__int128) A->t[3] * B->t[1]) + ((__int128) A->t[4] * B->t[0]);
R[5] = (__int128) ((__int128) A->t[6] * B->t[20] * LAMBDA) + ((__int128) A->t[7] * B->t[19] * LAMBDA) + ((__int128) A->t[8] * B->t[18] * LAMBDA) + ((__int128) A->t[9] * B->t[17] * LAMBDA) + ((__int128) A->t[10] * B->t[16] * LAMBDA) + ((__int128) A->t[11] * B->t[15] * LAMBDA) + ((__int128) A->t[12] * B->t[14] * LAMBDA) + ((__int128) A->t[13] * B->t[13] * LAMBDA) + ((__int128) A->t[14] * B->t[12] * LAMBDA) + ((__int128) A->t[15] * B->t[11] * LAMBDA) + ((__int128) A->t[16] * B->t[10] * LAMBDA) + ((__int128) A->t[17] * B->t[9] * LAMBDA) + ((__int128) A->t[18] * B->t[8] * LAMBDA) + ((__int128) A->t[19] * B->t[7] * LAMBDA) + ((__int128) A->t[20] * B->t[6] * LAMBDA) + ((__int128) A->t[0] * B->t[5]) + ((__int128) A->t[1] * B->t[4]) + ((__int128) A->t[2] * B->t[3]) + ((__int128) A->t[3] * B->t[2]) + ((__int128) A->t[4] * B->t[1]) + ((__int128) A->t[5] * B->t[0]);
R[6] = (__int128) ((__int128) A->t[7] * B->t[20] * LAMBDA) + ((__int128) A->t[8] * B->t[19] * LAMBDA) + ((__int128) A->t[9] * B->t[18] * LAMBDA) + ((__int128) A->t[10] * B->t[17] * LAMBDA) + ((__int128) A->t[11] * B->t[16] * LAMBDA) + ((__int128) A->t[12] * B->t[15] * LAMBDA) + ((__int128) A->t[13] * B->t[14] * LAMBDA) + ((__int128) A->t[14] * B->t[13] * LAMBDA) + ((__int128) A->t[15] * B->t[12] * LAMBDA) + ((__int128) A->t[16] * B->t[11] * LAMBDA) + ((__int128) A->t[17] * B->t[10] * LAMBDA) + ((__int128) A->t[18] * B->t[9] * LAMBDA) + ((__int128) A->t[19] * B->t[8] * LAMBDA) + ((__int128) A->t[20] * B->t[7] * LAMBDA) + ((__int128) A->t[0] * B->t[6]) + ((__int128) A->t[1] * B->t[5]) + ((__int128) A->t[2] * B->t[4]) + ((__int128) A->t[3] * B->t[3]) + ((__int128) A->t[4] * B->t[2]) + ((__int128) A->t[5] * B->t[1]) + ((__int128) A->t[6] * B->t[0]);
R[7] = (__int128) ((__int128) A->t[8] * B->t[20] * LAMBDA) + ((__int128) A->t[9] * B->t[19] * LAMBDA) + ((__int128) A->t[10] * B->t[18] * LAMBDA) + ((__int128) A->t[11] * B->t[17] * LAMBDA) + ((__int128) A->t[12] * B->t[16] * LAMBDA) + ((__int128) A->t[13] * B->t[15] * LAMBDA) + ((__int128) A->t[14] * B->t[14] * LAMBDA) + ((__int128) A->t[15] * B->t[13] * LAMBDA) + ((__int128) A->t[16] * B->t[12] * LAMBDA) + ((__int128) A->t[17] * B->t[11] * LAMBDA) + ((__int128) A->t[18] * B->t[10] * LAMBDA) + ((__int128) A->t[19] * B->t[9] * LAMBDA) + ((__int128) A->t[20] * B->t[8] * LAMBDA) + ((__int128) A->t[0] * B->t[7]) + ((__int128) A->t[1] * B->t[6]) + ((__int128) A->t[2] * B->t[5]) + ((__int128) A->t[3] * B->t[4]) + ((__int128) A->t[4] * B->t[3]) + ((__int128) A->t[5] * B->t[2]) + ((__int128) A->t[6] * B->t[1]) + ((__int128) A->t[7] * B->t[0]);
R[8] = (__int128) ((__int128) A->t[9] * B->t[20] * LAMBDA) + ((__int128) A->t[10] * B->t[19] * LAMBDA) + ((__int128) A->t[11] * B->t[18] * LAMBDA) + ((__int128) A->t[12] * B->t[17] * LAMBDA) + ((__int128) A->t[13] * B->t[16] * LAMBDA) + ((__int128) A->t[14] * B->t[15] * LAMBDA) + ((__int128) A->t[15] * B->t[14] * LAMBDA) + ((__int128) A->t[16] * B->t[13] * LAMBDA) + ((__int128) A->t[17] * B->t[12] * LAMBDA) + ((__int128) A->t[18] * B->t[11] * LAMBDA) + ((__int128) A->t[19] * B->t[10] * LAMBDA) + ((__int128) A->t[20] * B->t[9] * LAMBDA) + ((__int128) A->t[0] * B->t[8]) + ((__int128) A->t[1] * B->t[7]) + ((__int128) A->t[2] * B->t[6]) + ((__int128) A->t[3] * B->t[5]) + ((__int128) A->t[4] * B->t[4]) + ((__int128) A->t[5] * B->t[3]) + ((__int128) A->t[6] * B->t[2]) + ((__int128) A->t[7] * B->t[1]) + ((__int128) A->t[8] * B->t[0]);
R[9] = (__int128) ((__int128) A->t[10] * B->t[20] * LAMBDA) + ((__int128) A->t[11] * B->t[19] * LAMBDA) + ((__int128) A->t[12] * B->t[18] * LAMBDA) + ((__int128) A->t[13] * B->t[17] * LAMBDA) + ((__int128) A->t[14] * B->t[16] * LAMBDA) + ((__int128) A->t[15] * B->t[15] * LAMBDA) + ((__int128) A->t[16] * B->t[14] * LAMBDA) + ((__int128) A->t[17] * B->t[13] * LAMBDA) + ((__int128) A->t[18] * B->t[12] * LAMBDA) + ((__int128) A->t[19] * B->t[11] * LAMBDA) + ((__int128) A->t[20] * B->t[10] * LAMBDA) + ((__int128) A->t[0] * B->t[9]) + ((__int128) A->t[1] * B->t[8]) + ((__int128) A->t[2] * B->t[7]) + ((__int128) A->t[3] * B->t[6]) + ((__int128) A->t[4] * B->t[5]) + ((__int128) A->t[5] * B->t[4]) + ((__int128) A->t[6] * B->t[3]) + ((__int128) A->t[7] * B->t[2]) + ((__int128) A->t[8] * B->t[1]) + ((__int128) A->t[9] * B->t[0]);
R[10] = (__int128) ((__int128) A->t[11] * B->t[20] * LAMBDA) + ((__int128) A->t[12] * B->t[19] * LAMBDA) + ((__int128) A->t[13] * B->t[18] * LAMBDA) + ((__int128) A->t[14] * B->t[17] * LAMBDA) + ((__int128) A->t[15] * B->t[16] * LAMBDA) + ((__int128) A->t[16] * B->t[15] * LAMBDA) + ((__int128) A->t[17] * B->t[14] * LAMBDA) + ((__int128) A->t[18] * B->t[13] * LAMBDA) + ((__int128) A->t[19] * B->t[12] * LAMBDA) + ((__int128) A->t[20] * B->t[11] * LAMBDA) + ((__int128) A->t[0] * B->t[10]) + ((__int128) A->t[1] * B->t[9]) + ((__int128) A->t[2] * B->t[8]) + ((__int128) A->t[3] * B->t[7]) + ((__int128) A->t[4] * B->t[6]) + ((__int128) A->t[5] * B->t[5]) + ((__int128) A->t[6] * B->t[4]) + ((__int128) A->t[7] * B->t[3]) + ((__int128) A->t[8] * B->t[2]) + ((__int128) A->t[9] * B->t[1]) + ((__int128) A->t[10] * B->t[0]);
R[11] = (__int128) ((__int128) A->t[12] * B->t[20] * LAMBDA) + ((__int128) A->t[13] * B->t[19] * LAMBDA) + ((__int128) A->t[14] * B->t[18] * LAMBDA) + ((__int128) A->t[15] * B->t[17] * LAMBDA) + ((__int128) A->t[16] * B->t[16] * LAMBDA) + ((__int128) A->t[17] * B->t[15] * LAMBDA) + ((__int128) A->t[18] * B->t[14] * LAMBDA) + ((__int128) A->t[19] * B->t[13] * LAMBDA) + ((__int128) A->t[20] * B->t[12] * LAMBDA) + ((__int128) A->t[0] * B->t[11]) + ((__int128) A->t[1] * B->t[10]) + ((__int128) A->t[2] * B->t[9]) + ((__int128) A->t[3] * B->t[8]) + ((__int128) A->t[4] * B->t[7]) + ((__int128) A->t[5] * B->t[6]) + ((__int128) A->t[6] * B->t[5]) + ((__int128) A->t[7] * B->t[4]) + ((__int128) A->t[8] * B->t[3]) + ((__int128) A->t[9] * B->t[2]) + ((__int128) A->t[10] * B->t[1]) + ((__int128) A->t[11] * B->t[0]);
R[12] = (__int128) ((__int128) A->t[13] * B->t[20] * LAMBDA) + ((__int128) A->t[14] * B->t[19] * LAMBDA) + ((__int128) A->t[15] * B->t[18] * LAMBDA) + ((__int128) A->t[16] * B->t[17] * LAMBDA) + ((__int128) A->t[17] * B->t[16] * LAMBDA) + ((__int128) A->t[18] * B->t[15] * LAMBDA) + ((__int128) A->t[19] * B->t[14] * LAMBDA) + ((__int128) A->t[20] * B->t[13] * LAMBDA) + ((__int128) A->t[0] * B->t[12]) + ((__int128) A->t[1] * B->t[11]) + ((__int128) A->t[2] * B->t[10]) + ((__int128) A->t[3] * B->t[9]) + ((__int128) A->t[4] * B->t[8]) + ((__int128) A->t[5] * B->t[7]) + ((__int128) A->t[6] * B->t[6]) + ((__int128) A->t[7] * B->t[5]) + ((__int128) A->t[8] * B->t[4]) + ((__int128) A->t[9] * B->t[3]) + ((__int128) A->t[10] * B->t[2]) + ((__int128) A->t[11] * B->t[1]) + ((__int128) A->t[12] * B->t[0]);
R[13] = (__int128) ((__int128) A->t[14] * B->t[20] * LAMBDA) + ((__int128) A->t[15] * B->t[19] * LAMBDA) + ((__int128) A->t[16] * B->t[18] * LAMBDA) + ((__int128) A->t[17] * B->t[17] * LAMBDA) + ((__int128) A->t[18] * B->t[16] * LAMBDA) + ((__int128) A->t[19] * B->t[15] * LAMBDA) + ((__int128) A->t[20] * B->t[14] * LAMBDA) + ((__int128) A->t[0] * B->t[13]) + ((__int128) A->t[1] * B->t[12]) + ((__int128) A->t[2] * B->t[11]) + ((__int128) A->t[3] * B->t[10]) + ((__int128) A->t[4] * B->t[9]) + ((__int128) A->t[5] * B->t[8]) + ((__int128) A->t[6] * B->t[7]) + ((__int128) A->t[7] * B->t[6]) + ((__int128) A->t[8] * B->t[5]) + ((__int128) A->t[9] * B->t[4]) + ((__int128) A->t[10] * B->t[3]) + ((__int128) A->t[11] * B->t[2]) + ((__int128) A->t[12] * B->t[1]) + ((__int128) A->t[13] * B->t[0]);
R[14] = (__int128) ((__int128) A->t[15] * B->t[20] * LAMBDA) + ((__int128) A->t[16] * B->t[19] * LAMBDA) + ((__int128) A->t[17] * B->t[18] * LAMBDA) + ((__int128) A->t[18] * B->t[17] * LAMBDA) + ((__int128) A->t[19] * B->t[16] * LAMBDA) + ((__int128) A->t[20] * B->t[15] * LAMBDA) + ((__int128) A->t[0] * B->t[14]) + ((__int128) A->t[1] * B->t[13]) + ((__int128) A->t[2] * B->t[12]) + ((__int128) A->t[3] * B->t[11]) + ((__int128) A->t[4] * B->t[10]) + ((__int128) A->t[5] * B->t[9]) + ((__int128) A->t[6] * B->t[8]) + ((__int128) A->t[7] * B->t[7]) + ((__int128) A->t[8] * B->t[6]) + ((__int128) A->t[9] * B->t[5]) + ((__int128) A->t[10] * B->t[4]) + ((__int128) A->t[11] * B->t[3]) + ((__int128) A->t[12] * B->t[2]) + ((__int128) A->t[13] * B->t[1]) + ((__int128) A->t[14] * B->t[0]);
R[15] = (__int128) ((__int128) A->t[16] * B->t[20] * LAMBDA) + ((__int128) A->t[17] * B->t[19] * LAMBDA) + ((__int128) A->t[18] * B->t[18] * LAMBDA) + ((__int128) A->t[19] * B->t[17] * LAMBDA) + ((__int128) A->t[20] * B->t[16] * LAMBDA) + ((__int128) A->t[0] * B->t[15]) + ((__int128) A->t[1] * B->t[14]) + ((__int128) A->t[2] * B->t[13]) + ((__int128) A->t[3] * B->t[12]) + ((__int128) A->t[4] * B->t[11]) + ((__int128) A->t[5] * B->t[10]) + ((__int128) A->t[6] * B->t[9]) + ((__int128) A->t[7] * B->t[8]) + ((__int128) A->t[8] * B->t[7]) + ((__int128) A->t[9] * B->t[6]) + ((__int128) A->t[10] * B->t[5]) + ((__int128) A->t[11] * B->t[4]) + ((__int128) A->t[12] * B->t[3]) + ((__int128) A->t[13] * B->t[2]) + ((__int128) A->t[14] * B->t[1]) + ((__int128) A->t[15] * B->t[0]);
R[16] = (__int128) ((__int128) A->t[17] * B->t[20] * LAMBDA) + ((__int128) A->t[18] * B->t[19] * LAMBDA) + ((__int128) A->t[19] * B->t[18] * LAMBDA) + ((__int128) A->t[20] * B->t[17] * LAMBDA) + ((__int128) A->t[0] * B->t[16]) + ((__int128) A->t[1] * B->t[15]) + ((__int128) A->t[2] * B->t[14]) + ((__int128) A->t[3] * B->t[13]) + ((__int128) A->t[4] * B->t[12]) + ((__int128) A->t[5] * B->t[11]) + ((__int128) A->t[6] * B->t[10]) + ((__int128) A->t[7] * B->t[9]) + ((__int128) A->t[8] * B->t[8]) + ((__int128) A->t[9] * B->t[7]) + ((__int128) A->t[10] * B->t[6]) + ((__int128) A->t[11] * B->t[5]) + ((__int128) A->t[12] * B->t[4]) + ((__int128) A->t[13] * B->t[3]) + ((__int128) A->t[14] * B->t[2]) + ((__int128) A->t[15] * B->t[1]) + ((__int128) A->t[16] * B->t[0]);
R[17] = (__int128) ((__int128) A->t[18] * B->t[20] * LAMBDA) + ((__int128) A->t[19] * B->t[19] * LAMBDA) + ((__int128) A->t[20] * B->t[18] * LAMBDA) + ((__int128) A->t[0] * B->t[17]) + ((__int128) A->t[1] * B->t[16]) + ((__int128) A->t[2] * B->t[15]) + ((__int128) A->t[3] * B->t[14]) + ((__int128) A->t[4] * B->t[13]) + ((__int128) A->t[5] * B->t[12]) + ((__int128) A->t[6] * B->t[11]) + ((__int128) A->t[7] * B->t[10]) + ((__int128) A->t[8] * B->t[9]) + ((__int128) A->t[9] * B->t[8]) + ((__int128) A->t[10] * B->t[7]) + ((__int128) A->t[11] * B->t[6]) + ((__int128) A->t[12] * B->t[5]) + ((__int128) A->t[13] * B->t[4]) + ((__int128) A->t[14] * B->t[3]) + ((__int128) A->t[15] * B->t[2]) + ((__int128) A->t[16] * B->t[1]) + ((__int128) A->t[17] * B->t[0]);
R[18] = (__int128) ((__int128) A->t[19] * B->t[20] * LAMBDA) + ((__int128) A->t[20] * B->t[19] * LAMBDA) + ((__int128) A->t[0] * B->t[18]) + ((__int128) A->t[1] * B->t[17]) + ((__int128) A->t[2] * B->t[16]) + ((__int128) A->t[3] * B->t[15]) + ((__int128) A->t[4] * B->t[14]) + ((__int128) A->t[5] * B->t[13]) + ((__int128) A->t[6] * B->t[12]) + ((__int128) A->t[7] * B->t[11]) + ((__int128) A->t[8] * B->t[10]) + ((__int128) A->t[9] * B->t[9]) + ((__int128) A->t[10] * B->t[8]) + ((__int128) A->t[11] * B->t[7]) + ((__int128) A->t[12] * B->t[6]) + ((__int128) A->t[13] * B->t[5]) + ((__int128) A->t[14] * B->t[4]) + ((__int128) A->t[15] * B->t[3]) + ((__int128) A->t[16] * B->t[2]) + ((__int128) A->t[17] * B->t[1]) + ((__int128) A->t[18] * B->t[0]);
R[19] = (__int128) ((__int128) A->t[20] * B->t[20] * LAMBDA) + ((__int128) A->t[0] * B->t[19]) + ((__int128) A->t[1] * B->t[18]) + ((__int128) A->t[2] * B->t[17]) + ((__int128) A->t[3] * B->t[16]) + ((__int128) A->t[4] * B->t[15]) + ((__int128) A->t[5] * B->t[14]) + ((__int128) A->t[6] * B->t[13]) + ((__int128) A->t[7] * B->t[12]) + ((__int128) A->t[8] * B->t[11]) + ((__int128) A->t[9] * B->t[10]) + ((__int128) A->t[10] * B->t[9]) + ((__int128) A->t[11] * B->t[8]) + ((__int128) A->t[12] * B->t[7]) + ((__int128) A->t[13] * B->t[6]) + ((__int128) A->t[14] * B->t[5]) + ((__int128) A->t[15] * B->t[4]) + ((__int128) A->t[16] * B->t[3]) + ((__int128) A->t[17] * B->t[2]) + ((__int128) A->t[18] * B->t[1]) + ((__int128) A->t[19] * B->t[0]);
R[20] = (__int128) ((__int128) A->t[0] * B->t[20]) + ((__int128) A->t[1] * B->t[19]) + ((__int128) A->t[2] * B->t[18]) + ((__int128) A->t[3] * B->t[17]) + ((__int128) A->t[4] * B->t[16]) + ((__int128) A->t[5] * B->t[15]) + ((__int128) A->t[6] * B->t[14]) + ((__int128) A->t[7] * B->t[13]) + ((__int128) A->t[8] * B->t[12]) + ((__int128) A->t[9] * B->t[11]) + ((__int128) A->t[10] * B->t[10]) + ((__int128) A->t[11] * B->t[9]) + ((__int128) A->t[12] * B->t[8]) + ((__int128) A->t[13] * B->t[7]) + ((__int128) A->t[14] * B->t[6]) + ((__int128) A->t[15] * B->t[5]) + ((__int128) A->t[16] * B->t[4]) + ((__int128) A->t[17] * B->t[3]) + ((__int128) A->t[18] * B->t[2]) + ((__int128) A->t[19] * B->t[1]) + ((__int128) A->t[20] * B->t[0]);
}


static const int64_t __Pi__[N][N] = {
		{-252701193025039, 385895336815103, 256705416505860, 458275832285960, 115245787041728, 1076494067326796, 2327112361929, -326767409381323, -650804948067943, -1128313122128121, -253505039245066, -1095242439947442, -82456411589787, -1115339614837909, 133119052741662, -246242544208298, -355386135495724, 51077837185835, 47133661264196, 667625946103057, -223529162956086},
		{849669197540872, 635325444806034, -204592516629484, 88073136720016, 326032189673338, 719586701848162, 443723583667982, -124689093744048, -352757317865581, -1041777685408979, 190526996102359, -596937333050389, -307560180871394, -651670942095119, 126526547010751, 120351624058015, -204342536856432, 530731089611703, 197832106646648, 859874709784368, -117873233030330},
		{-75417706486849, 441964923461822, 191674123601209, 619344510703431, 299895544623442, 628940366345821, 296911593420663, -86581993786099, -277054436230915, -1304391917312008, -120161695646378, -857880680767077, 93601575048979, -901832345688814, 294958341759, 514408572380017, 151502499661489, 768109350182511, 86760871017780, 235139953763328, -309031799773219},
		{495010052314396, 2358925057491, 12564738618398, 243359223743044, 339191723329985, 741542304999984, -15232353652301, -135503585883415, -96139453564222, -1288452847009913, 69721980671018, -896044349207714, 76490620823383, -745281236844683, 316963094018478, 734369316361840, -37501832680241, 675291561902397, 433451667995859, 505242669636701, -360547673629972},
		{352014047120218, -44394542605079, -311485140818084, 364890139781564, 143626544487932, 492423563060082, -50996459215857, -316509846094449, -256658629336322, -1055277467424772, -171156131481325, -806504328637778, 90715195422667, -530793786863641, 576419920876697, 98437062650033, -93183102861855, 416123854826227, 389873720666523, 475295291461508, -367743174101608},
		{412759589515174, 202110993726033, -104688645593013, 161404922593277, 282053519135900, 449918662780984, -175492070465833, -133055423724624, 86759564812704, -1243345478294283, 54554029088019, -666363078701247, 165708431144621, -470216520402496, 71653321991059, -10263796332823, -471799558026884, 467330385270001, 304556766419594, 595558117208146, -143456203594619},
		{476300302836616, -47783956986819, -126650610589765, 88204516912932, 474980975865285, 705058951656395, -2850689501856, -11544618800490, 248507890296111, -817310460180947, 72630148743196, -483481917220770, -109056441131092, -396245957593692, -64180190275745, 581781962941787, -397175200381891, 659623459845281, 497581219687715, 528644141785454, -212936586921041},
		{331161867618713, 342948591816575, 144517576040100, 248140698917539, 81298460746536, 699883130043733, 103595222741767, -364398215634541, -331869366068185, -1126336777510857, -91904879902288, -720056751940367, 21716717178278, -657575358621478, 169111568054839, -270711297310375, -323163073609412, 152037137709866, 395538483386425, 817358955682640, 14298355432577},
		{-51323284768990, -265034531657342, 117250490813531, 218211118886592, 315029812214921, 705546400725373, -498070475528069, -203948714633906, -137243416284152, -721165148442244, -57805836900484, -906010078399274, -54912026625884, -653188615296295, 332919058744740, 535442396375512, -363267641996233, 499845680547410, 568510303574400, 453990778688377, -286081976273825},
		{-127566009163387, -263688525456195, 407025670423685, 317689276892190, 218083199402505, 541430367350359, -366576533736128, 267335954829579, -220618470684083, -690276935898097, -347718386604431, -312048479095635, 180119850700285, -175720642235810, 607730563528874, 393007303635654, 117375863232520, 333283212739005, 348673001124281, 5591529725053, -526042370482664},
		{207466107706966, -166515066580590, 130224863094296, 294745691053780, 52724115529996, 834833678757284, -271967527724584, -271293618318881, -408505002667943, -1073480882037724, -135494188451863, -925073797414150, 56961452728085, -946979301375427, 292558257767872, 50885835272333, -400166792238172, -53644965687334, 517662473604309, 719823957100762, -40025585504307},
		{91563109451006, 426383758273559, 190598773686993, 305918260173548, 366866685322066, 562026192298388, 174786582701820, 132740935684752, -285032519069577, -1142827176659957, 101930551025544, -558153406028934, 197409899070230, -459060664911378, -45939303516011, 263393883222358, -41970212887028, 465660198035519, -61427233307438, 281627000858573, -133982467938159},
		{-287491224295266, -67435924929839, 287238089833851, 260524614310987, 227925226213124, 604702193308152, -168338961762574, -189119086365041, -459982332644984, -997660929794484, -249005819777225, -729072825612580, 323246334028235, -657195601453196, 367230808816271, 109182360092485, 101608387757590, 112384252562327, 343237908189511, 287859320743454, -68963086097251},
		{107332555763760, -73108086110435, 35584447183691, 149382037315544, 432537308651394, 368575652364565, -43358492500483, -170839165539086, 115318883229107, -654718930806649, -51625694212484, -835639310374885, -16789626521031, -566550952951438, 86348292231996, 435307609186952, -379576124283532, 499908985837053, 505270217421031, 511654719492055, -26029278516645},
		{-355571927334098, 255038424258584, 146992029462770, 302659399278866, 365998632792283, 661640152004674, -270630810801388, -43443130946339, -36645249726830, -712826521792671, -124485320904289, -857603202410902, 116322909237370, -655199294655848, -118840495460655, 137003081610167, -605447008000829, 676805521326719, 297970125226493, 405583172755412, -45140586500772},
		{496504677189703, 335727061096689, 162287552998539, 145452545430532, 311464345278036, 1226866297121440, 19171458874689, -93121859221139, -615025210621286, -1706274742524204, 165497805074047, -1054748762885920, -298907167264266, -1077309040351349, 47363278677728, 442230390695922, -22536362133731, 138993923562589, -93449140151470, 303718104078570, -385836762098946},
		{-217125367497980, 337793815595950, 305299996880608, 309183861652286, 241179531313012, 1017939242398168, 292686129418089, -383475731892878, -507992805586717, -962240075296423, 115233530170568, -936252224260781, -296769477542589, -1026617317721198, -137685821045149, 471493951847360, -146249152901150, 523950752807975, 40753697837999, 420172569715046, -144944578666647},
		{17329623890322, 238302619616943, -231498700189379, 471573673912457, 259904584087824, 387661087272851, 206901066557334, -101168355466956, 10249041348359, -1031031956446096, -244244459927745, -976903889630293, 503154711197454, -765037135598173, 93357373444967, 2142804052311, -108762320352734, 564053223468906, 370997986259639, 469423063033040, 15056448391715},
		{334036490816778, 3030090088104, -237187547560908, -3041732559736, 266417754128197, 587339078172722, 273831904411777, -198102940354002, -136583639144805, -1066647928920014, 209726132211696, -608277056610878, -109853175410242, -420481282024103, 330548735645387, 135476234688486, -197589943010609, 296630275723309, 33165235626979, 416471918280825, -419930592324862},
		{276699947380524, 279462837568133, 59478593176488, 257073532400119, 292656084355764, 939677671551511, 152167291658107, -206296939144945, -445985520011996, -1664574798489137, -227742516402742, -1096830405373752, 43115366668427, -780647214741705, 383032540770882, -164995652148748, -117047228474358, 123311595195080, 263248827230687, 734250379644469, -331892115308237},
		{344068493328353, 420470819353784, -328474327840495, 409005204360841, 100116303553742, 426567726425066, 224059445489610, -87326189377269, -189719368970971, -1157696985284500, -120424608127629, -722339010655217, 361347373758807, -651839888945056, -3258409389637, -82255928092510, 22250193502712, 456157660370680, 114067771255638, 545992691963344, 22559300699929}
	};


static _poly __theta__ = { .deg = 21,
	.t = (int64_t[]) { 0x53c3fade6d3f, -0xb1c7c63579b3, 0x109d2160bb363, 0xd52cdd7ac384, 0x177b5b1cf107e, 0x1f91f1f427b1f, -0x1f330f2de80d, 0x42168bda58ec, -0x2062b24df330, -0x31cc9caf0dc9e, -0x4ee2bfcc9aad, -0x285eff5b79efe, -0x6386f6453dd1, -0x1f3282ac626d5, 0x9986123cfbe9, 0x28d667157605a, 0xd33782acbc, 0x253bcfeea1ac4, 0x1a0a7dfbdb61c, 0x1ac00e0f9c3e7, -0x1d44d8355fcec } };
static _poly __P__ = { .deg = 16,
		.t = (int64_t[]) {0xd38a4aa5f0d15c0d, 0x1a492619bacb053b, 0xa756c4c8676a2cc7, 0xf6aa607a79d82cb5, 0xcffaf035c7912dcf, 0x578088fb546e8053, 0x39f9e77fc5a7d519, 0x1d781509c1649be8, 0xe9d5984919726224, 0xdda2ff47cb3732fc, 0xfc82a0bbecb47552, 0xa681dd40133a7bee, 0xca9098d4c870e97f, 0x8e8ad494318a1464, 0x7505298b399c3183, 0xd7d330786f4f8808} },
	Gi[] = { { .deg = 16,
		.t = (int64_t[]) {0x65aa86df24b17733, 0xcf1466ecc880284f, 0xd04871fddbc24766, 0x6141e76feeee9c9c, 0x27daf744f3e93e0f, 0x2dd1b6538fb7fe9a, 0x8ec179a9cede353b, 0x7be73b4ff8aebe23, 0x62227b3129538bae, 0x1af5296e09ee3bf, 0x10f6f75771c8b8b9, 0x20476658a6d5ebf9, 0x4c3c87bb5d5023a6, 0x498a7afec556e004, 0x103ba367fd20ff27, 0xe3aae44f042887e} },
	{ .deg = 16,
		.t = (int64_t[]) {0x3f3ff18bf8a5d9b5, 0x1768969a39fa2aa2, 0x5414b0357ccd8e24, 0x53d22f93812358e0, 0x28330c806014e304, 0xb22db6d9b5d0b1e6, 0xeef8c9f77dbafe8a, 0x18627d4c3a7c66c, 0xe3255e2497293be5, 0xecef076c4d41d70, 0xe881212f092f90b9, 0x6dca34c692cd31ee, 0x577c06f452e1406d, 0xf6366386f2ba57ba, 0x408c5481fd97e9f7, 0x4c1adafb40e27861} },
	{ .deg = 16,
		.t = (int64_t[]) {0x9c241c35a118d83d, 0x4137bf4096b984fc, 0x14c9bea11de1e769, 0x337d3384db695cbe, 0x424043b49096fe52, 0x1c2b5d74e8ca3480, 0xa04987c237f23501, 0x7a40b85672c9123a, 0x8fa8a8e3f729e6be, 0x8079addeda52ae8d, 0x505144e929695bbc, 0x39e0dda101cde0fd, 0xbb3723877c2a8073, 0x32e4a5a2be3ca380, 0xd168aeaf7d625bb8, 0x5c0a9d0c532d33cc} },
	{ .deg = 16,
		.t = (int64_t[]) {0x915c0ef6d6a4cdf3, 0x897ac44a4f1b07d, 0x89d9d57f845cbdda, 0x9dcaeb42dd64a42f, 0xb0b093b237ff06f2, 0x5cf3d63c4fa79e68, 0x37a83bc58cadebed, 0x3a89454f20226c1c, 0x9e495804600b44ec, 0x1e19a2faf65548e6, 0x606e81dd218dcc79, 0x7cbc4c7321d086eb, 0x91c6e225cc5b2f38, 0x7ef117795c734a4c, 0xd96d61f8d8ca2fdf, 0x3699da2a6b6dece4} },
	{ .deg = 16,
		.t = (int64_t[]) {0x4b9e11a0c7e7f9d2, 0xe0a44d40a8be67f1, 0x5646f44505e6b519, 0x15dd269c461da663, 0xcdef249c141226fb, 0xcfd0d5b8fbb0e02a, 0x9a4c1959b4b62b33, 0xce1192af2de399aa, 0x5e7d2621d9808d89, 0xa8da6c7b8ddc9323, 0x494930f97715abda, 0x1b6ef80f7b6a4916, 0xc102b90609faa6d4, 0x685a00270910b94f, 0x8aa6d8ac9ee21a2b, 0x510554350fd8e525} },
	{ .deg = 16,
		.t = (int64_t[]) {0xa43b0a51d0a1d5f0, 0xedbf8ce4ea4bc9c7, 0x90744ce33c2df11a, 0x218441ee888c0c48, 0x29a0322954cd700b, 0x99c3e2f43d147096, 0x6888ffbd44b60ff1, 0x6aa4b1da17faa6e1, 0xe993727e3b6c4b79, 0x46cf581820417d16, 0x860cd3d935f1eae6, 0x113377233bbdcdf7, 0xcf14399ade84dce0, 0xa89617761a7938d8, 0xae6828b18b94dfc5, 0x8fc91b56b5b9a56f} },
	{ .deg = 16,
		.t = (int64_t[]) {0x7ee53dfb1760adc9, 0xc81fd5dd8bdfdce3, 0x918b8552c8281ba6, 0xb92d7bfac26ba0fa, 0x2df7d1a69689a486, 0xccbfee025e47c95f, 0x2a4d02ce6ec32885, 0xe5adbb30c25bdb55, 0x479270d59bc21bd0, 0x2f9b0a97b5838061, 0x13cf992e76bbdb2d, 0x3b40935df72e5f05, 0x74558e8a31b6c798, 0xe0baca1411babf86, 0x81913a225b82b35c, 0x4684952807939ef2} },
	{ .deg = 16,
		.t = (int64_t[]) {0xe470e6c93cf9d55d, 0xe280ef3dd881f48a, 0x373395499ccc15d, 0xced3aaa06185f930, 0xfd635f277579e258, 0x81fcf2daf452b848, 0x8aa50187efca42ed, 0xd0830ee7397186e5, 0xae6aa13a14306a4f, 0xe8d559ebd0180df8, 0x58f0137b97f95731, 0x856b15718880f616, 0xa8081c1fe43e8f0d, 0x42c60dcce7e0f652, 0xe1807cb8136842a5, 0x32ea6ad6fca5cf86} },
	{ .deg = 16,
		.t = (int64_t[]) {0xa0c36192c3978d59, 0xaa8e44fedbc650aa, 0x430cdcf7eb45a51d, 0xe0fa06f42c5b5d81, 0x72df841fd0714e56, 0xe9def7962ec9933a, 0x3c0813cf3029b170, 0x3d14a5b93cb2463f, 0x9a9feb06aed0886e, 0x858581ccdb04f977, 0x185684e40978d26f, 0x5dfd3bbaad784d1e, 0x3f09ca1530ad97b8, 0x71844e0dfbcd228, 0x31b5957232462f3a, 0x8b5fdaf8fc1b6bf9} },
	{ .deg = 16,
		.t = (int64_t[]) {0xa6d6350a0ae50101, 0x7e325a2b8be32f9c, 0xbf020acac8576c0a, 0x3cf1ae56e4485df4, 0x9df4b5d90d9fc5ee, 0x44f682789c68d2d8, 0xab5bdcb3c0bcf9f4, 0xc348f3e1fb0f609a, 0x8d4232ed0ccc7983, 0xd96c00e9ff9b131f, 0xc500601685df255d, 0xd7359ea187836576, 0xfcf14290a2c15530, 0xce838130c9d3c7fc, 0xc4858a0d8fbee8dd, 0x6957e3c5bcdf058e} },
	{ .deg = 16,
		.t = (int64_t[]) {0x4e8aa99b5584c45f, 0xe665fbd5c62cb745, 0x3075c6b15563e5bf, 0x76e3b8908f44d7ce, 0x6820ac333fb3fd9c, 0xd454f63d2a0cf9eb, 0x44e19fdc28450570, 0x927ec39fdf58b97b, 0x6a5a915090a14b15, 0xce56914ccea37e47, 0x41505fb199b7120a, 0x457a977c697a3f3a, 0xf513ffa6c6d6eb13, 0xe609251cb43e56e2, 0x3d56573402a1b4f6, 0x42be5f0466601b79} },
	{ .deg = 16,
		.t = (int64_t[]) {0x24a7ae5d4f4e5505, 0x4103f857b09086fc, 0x531964be4800484d, 0xcbdf6af68a0ba064, 0xf5c7cea4c9e8ac6e, 0x9ed4f79416a9599, 0x8ac9bb045c9b3ed5, 0xc7ba16e0d205f1f, 0xde417cb0c57a69e4, 0xe69754cd95504ddc, 0x12320221cc15e17c, 0x746cba756771a167, 0x1c6da0c839b1ef73, 0x7b6929f381990a8f, 0x6606e0d700d92d7b, 0x6ac8ac393a7bb63c} },
	{ .deg = 16,
		.t = (int64_t[]) {0x15b2a6036458447d, 0xdd1bd4b8b1c865fc, 0x5e84dd53767ba6d1, 0xb04d9955eda1d789, 0xf182a51d13a51dad, 0xd770aa2970e5c1d7, 0x6a0a1ea555fa3e2e, 0x7f02de4656efb1d, 0x53e758606d383add, 0x833ac05bf1b1bdd2, 0x5db156144302ecfd, 0x62b1ba3ae0efcbfe, 0x11104acff3fb5ca5, 0x48d7395ff4d1bc5c, 0xf3ddd02cfb8a863e, 0x801f3ce94ba399e4} },
	{ .deg = 16,
		.t = (int64_t[]) {0xf2c34ac1b646c37e, 0x5b531307111cc233, 0x6378c0aa9e1e61d5, 0x4227fc56f47ebe9f, 0x7271091874bd0db2, 0x3fb35730dd7672d8, 0x46f2be1df44dcc0, 0xd7923765a689fd95, 0x9e24c172a45c280f, 0x7928e9f05d96cfca, 0x9d00e40da8972bda, 0xb0c0c3960bdcb772, 0x1b4931b9b1e28951, 0xa8116361c3bbad8b, 0xa6a1327193627660, 0xd21a237a89f58112} },
	{ .deg = 16,
		.t = (int64_t[]) {0x167a3fa8413d8ed7, 0x5ba1b7f155b32144, 0xd8ca5325da39a812, 0xefe61d7f1ccc98e6, 0x9710fe871e046ecd, 0x9a60f4c98b14139e, 0x3594f97a0bba878b, 0xad14b3ebebef8018, 0xd0f192860c4f5e62, 0xfd63b1f2eedb30e3, 0x5339321775fed569, 0xf82584efbb981938, 0xfe9d2e18bfbac85a, 0x11df8cd336f93619, 0xc130b7cb2c582c50, 0x468be0b33853efc7} },
	{ .deg = 16,
		.t = (int64_t[]) {0xb9278ac27a7a119e, 0xe17ede5d28122b34, 0x45e1c9c31ceb1fa0, 0xe39d56b0e1a94db6, 0x63bff49ac29f2b4e, 0x273d3b3c1b8ead4f, 0x5f34d3a478f27d64, 0xa4dadaab719d432, 0x9338f6d48e83a2d4, 0x4527601fb2db365a, 0x5b097b273a35b349, 0xcd5821d3047d28e3, 0x38553ee3f6538475, 0x4103ff724db3397b, 0xe67c441c6ea90171, 0xb6d8ce72bd557631} },
	{ .deg = 16,
		.t = (int64_t[]) {0x21bf60c0d891302c, 0x6a32624d8d4d0b38, 0xd378e05824a7ef78, 0x99b86df54e51f28e, 0x3f12a332e580233a, 0x63a7a57c7f2a21f7, 0xa5ba53d4b3bf6add, 0x3cd38e7218bdbcdf, 0x840fe46c2d11b347, 0x9dc84ac6a055345b, 0xfe9ed89b7f99c552, 0xf23f5a30a2fd3a86, 0xe146fa9591e09ff9, 0x514c7896e0b090b9, 0x4f6a575b6fb89299, 0xaa84fc143d6add62} },
	{ .deg = 16,
		.t = (int64_t[]) {0x91fab4cb08034b6d, 0x4205daadf76c6bf, 0x1409333e94fa6347, 0xfc8868e938cbad02, 0x84e41460d0f6f572, 0xe32f5aeb250ab46b, 0xd2cd6f8197eb049e, 0x40b7bfc503b5dac8, 0xdfe566611905f3c0, 0x35aff1afbcdb61a5, 0x5407c91f20da3219, 0x8a91eb6cd259f51c, 0xb56310921f348a19, 0xb302b014e2d6a7b0, 0x2fe8a9af8c94bee, 0x43bd09fd4db6e791} },
	{ .deg = 16,
		.t = (int64_t[]) {0xe79e24ae13b5cc26, 0x53b791ba2fd134ca, 0xaec31bc930f259e8, 0x3c710a3037544a79, 0x8f4da93e7227e683, 0x3e66eec54fccf276, 0x4de2f55c0830698f, 0xd849978b3aa94dd5, 0x1ee750d7eef18b7c, 0xd1191d56d477b93a, 0x7adfc0bc8d7f9e6e, 0x8ae14039377a0c9c, 0x198431cb3ef71798, 0xc3ba90c9d8e747ad, 0xde3ad80ce8f9e13c, 0x97991fd61df71cc} },
	{ .deg = 16,
		.t = (int64_t[]) {0x8abf43ac5bf9cad4, 0xb82188301009074e, 0x5b3ef45e73a6b812, 0xefc2ce0e7c473604, 0x64f8386db5c92d13, 0xf1d44befc0dca874, 0x82bcce590dd690c1, 0x47cf505507240174, 0x766bb8dc63245627, 0xefa0c63b14d33738, 0x1394be3af1829ba8, 0xd403532e26c09e5f, 0xe69e6198737b15a6, 0x6560d6d4594abc2d, 0xa3b87a5c9baafa09, 0x31fb5ab434375a38} }};
#endif
