#ifndef PMNS_PARAMS_H_INCLUDED
#define PMNS_PARAMS_H_INCLUDED

#define RHO 56
#define N 20
#define _PRAGMAGCCUNROLLLOOP_ _Pragma("GCC unroll 20")
#define LAMBDA 5
#define M_or_B_is_B

static const int64_t B[N][N] = {
{1540419123116012, -488669472138289, -1359888641104380, 640678292716957, -26153400161088, -377737613296714, 337235917218079, 313589049191213, 282628620679613, -128714243706936, -1431804380080711, 241648085484337, 636899409565742, -216947653249866, -67461742430658, 208405799717812, 101184268125613, 662123785891963, -148674681602683, 1069855071327927}, {354774485323982, -59349920116006, 909766245693539, 1206140030240178, -751219586780635, 501710950768973, -838915399951085, -141290775143193, 37009365282105, -1190120508541355, 5669029699012, 375859436678405, -157585936011269, 745224203226988, -427041260441571, 1099649523096556, -1337457882547023, 213107238846517, 469130233983642, -1186582629925585}, {-303924835286253, 54789182354429, 1144103590909096, -321999280778879, -710326556418472, 930608941522793, -885175920659364, -728916148874480, 746224003538785, -989306613449844, 1494958890564207, -117216783571745, -157639987731149, 134650426943051, -536311000016067, -401775971512061, -979376218951515, 1281692033438997, 158357829466650, 982876191055937}, {1549434401904469, -410521523179486, -178153865537865, -770750779078590, -5692848830402, -615295617024068, 862853527431823, 541598589944892, 247310278784191, 639322259951185, 761079741483213, 936077277201267, -299314186524688, -276897501884738, -1168277892956918, 35196535073893, -606005975227623, 744432859993766, 1470258904076554, 1118405286121028}, {1039469838880768, -1400781671466543, 211780301963137, 20107120547191, 209887760434573, -371978721038601, 112775154099702, -1206661240185582, 364361976543214, -1431750328360831, 852221861768274, 746169149140238, 1284477841358751, -425543406026166, -860178994874668, 411956672642605, -1507335035089559, -16934817480636, 1047027250833840, 261216355580091}, {715645093087953, -450693851839255, 326616206277646, 565581262636373, -423321048713093, -643712398043058, 624676797997272, 702694265665091, 1651422448534381, -242228610826710, -2139885304102775, 256501936523488, 203604353868656, -232929019654623, -1029799621206658, -206586605966008, -3041096733455, -973243337400618, 1095332049779957, -962519266143402}, {-428931821668093, -1169237534098520, 114243587570812, 561051661230925, 1650101395109212, -579538025811750, 442196604819404, 153131089973226, 249572537089817, -142562474135311, -1172891904983504, -1226673437100559, 634901682930782, -500499633231886, -1198192834391655, -1538179771595523, -22822381171266, 410416293157730, -647411089736122, 1236266563251096}, {-242952753182098, 935572182058879, -1053807215694838, -894769229915388, -287304158798102, -307969824482047, -265474486237172, 53341621038546, 2475136967502450, -30953206437437, 1171915316621409, -305418907365225, -1391438140664300, -178665165673634, 159078120506216, -233436423147732, -99798121127413, 335263875780914, -95949929228112, -274853334385858}, {-681773806543970, -180529799250487, 324891126474018, -101755546905564, 669441591172525, 653309240131682, 541534680100712, 1570519215634756, 471660909166815, 1688912372056768, -990741442575854, 1023085306690284, 593933551228033, 676793423910238, -1017245344766478, -1394567244421455, 33013901791690, -544268611808686, -76330213210036, 997060326999175}, {-180529799250487, 324891126474018, -101755546905564, 669441591172525, 653309240131682, 541534680100712, 1570519215634756, 471660909166815, 1688912372056768, -990741442575854, 1023085306690284, 593933551228033, 676793423910238, -1017245344766478, -1394567244421455, 33013901791690, -544268611808686, -76330213210036, 997060326999175, -136354761308794}, {680568061960231, -1474132228675192, 79626631486032, -1676254795270300, 201800412515036, -104960687601325, 160457959217987, 33056083589796, 13848230428375, -258912475097207, 1468321522584896, 1997726634960, 283551979982020, 1130731091960997, 1746585571313335, 124006649296879, 251707492734233, 498736408133439, -166411491923169, 393870188956821}, {-1843136321279952, -632119869252515, 1332788643313909, -32438735764662, -131518152358443, 1283968720681999, 889997564012580, 817062631869214, -286034208660693, -1378322632334835, -1228129123234139, 62543844061720, 537803184511014, 913563751591317, 452536837382531, 153221365438473, -1591765641241785, -1044622286595278, 481324650404473, -1010426029984695}, {-18504639660320, -539431576171024, 251540569265369, -233909217382669, -1026920324644966, 645221892212145, 808552713537988, 1618202020753041, 1711378232942193, 1338398625941929, 182096410687770, 1639184967506906, -150237871277245, -324132437466493, 539029153220685, 1212197321766548, -254936121554036, 1214773916015106, 439341012404039, -216378415757834}, {-450366453572445, -1211587359171021, 1705186044692347, -312822755764866, -824067344319950, 24294083899216, -983949877601849, -1033081721920664, 287308719118138, -1137057757894022, 74393353040679, 1982355889272031, 482278590829307, -3019885644, 1188447744722144, -502851586694895, 493045206072116, 271641583855227, -158839845516451, -2019704332109399}, {650574754402665, -804405881319537, 1089034166779857, -682744169929450, -264890307109023, 459289094809874, 1611824675656644, -282664857031646, -1163581722812558, 1089125557590260, 126732726257267, -1905579962765822, -386459367234883, 1201688082327602, 6608227596326, -1374320816976190, 204162471081356, -464725073268173, 223109833263422, -227495445014937}, {-487079608117719, 91781555741323, -99102202353325, -1440324249362728, -506666441695216, 670434307243212, -1629038370369236, 172981726393201, 1634621133936725, -921783697141605, -226475869184797, 1512830684140872, -612657304921517, -86865261121588, -1972085953315238, 193043075207574, -673195557872760, 334071567253159, -264350422718693, -527781958701226}, {-369910765671591, 17057025879775, -1333366083418844, 376476518615060, -1045664495868891, -525218010524807, -561799611332362, 559126111476659, 1217027726118670, -1307601786482531, 365285215037412, 1074954068334010, 746882974828292, 1601693952744594, 1096637089745234, 90052777979459, 37895697323096, 1364538960977184, 501648253512010, 123571441096529}, {-602142432648610, 1355762032268970, -296478822988926, -684031612793510, 819897998312169, -132151094729578, 932526051010247, 1116522538020035, 1883676506990213, 1658036611903647, -1136738341560521, 213049617125207, 467269650885497, 155181036087980, 1067305703197807, 717694318894319, 1053119201260332, -21499698406304, 1314572037142519, 104077136623125}, {495942266083068, -1254492192853092, -13793450512780, 258486081683577, 399026964813877, 1627662275644907, 408404923923392, -990002984783229, -514364690640359, 167835257786031, 157529414830744, -738780527352795, -203601333983012, -955518725067521, 1532651207901553, -286458600106108, -268600487121772, 1132083182917069, 924372282329442, 1052592556857891}, {-389040552578956, 216558473687460, -316526910095189, -1370873979945819, -588211924887961, -316090321154376, 20899748325001, 353109056969829, -1827595126900541, 730010788832952, 716913172834912, -704804946222161, -164453872675575, -1456616606685791, 758365121383585, -137918397441527, -975808735753786, 829845211857634, -873685275379603, -1510228071119697}
		},
	B1[N][N] = {
{3073108019412669960u, 3012740756620212518u, -1406459678894957809u, 8968967522756671518u, -604577217493668874u, -5887422854967551386u, -6464489890818278703u, -7341992117757293190u, 4762974371991488467u, 7899395784053131722u, 3591741024262348384u, -8650953696096767319u, 6292647489953122860u, 7208050090203627927u, -7233179041392216417u, -165901798790123083u, 6359774257282808980u, 7832511774282783691u, -1311663239277883736u, 8691120571418503286u}, {1670202269285276520u, -8176231236914453821u, -2309222674858470801u, -2896463262432087503u, 8288773635093159126u, -2440898200401890677u, -7996983477313407772u, -3471996017552898994u, -2663757468830770062u, -1404568514052378154u, -2825782168800082816u, -2991196533115546182u, -5595122342141148089u, 1554331020020874748u, 5306359810049049743u, -7639876586548406162u, 7538320131287522630u, -1820849630943592226u, -6464489890818278703u, 79602301196974830u}, {8945448031677176276u, 6572588650459153949u, -628167926561985097u, -316727087376772727u, 3153836614263370948u, 1314876095774439306u, 7674124671913583160u, -1881565159086708155u, 5477081499618908480u, -4357877728102318640u, 2100434315174758604u, -3370904800096923166u, -8709984077942110479u, 8904910710525856795u, -8495442114144493654u, 4197016917290128201u, -1360412731697132706u, 6813756822442320759u, -7996983477313407772u, -2353507490478838392u}, {4615849156130200555u, -696127540820192069u, 1944834398049754080u, 5146141461786596813u, 7062692354624070245u, -4815437298554534797u, 1880554322690686142u, -627579833721215794u, -1969037204578137892u, -7144969264696345210u, -6137617556440419316u, -179310830358798321u, -9038861143071589127u, -3227315186786729920u, 3467352755627699761u, -7932085225198190215u, 8856534224147079092u, 3358145630990747166u, 7674124671913583160u, -6419904028285905613u}, {2079413881741136552u, -5494749852302032748u, -6846274868264743934u, -3275064270833125u, -5910592608441838402u, -2157052473580799237u, -7035604990136718008u, 2204894925233927969u, -129887542188871980u, -1277314833110956897u, 5220131778514859484u, 7398647019137121797u, -6843048494410602613u, 3820773180407013076u, -1326150555689665093u, 210233447751003321u, -9135810239799333525u, -1842498590415267796u, 1880554322690686142u, 1749421248571419925u}, {7431878900462665712u, 573091772918577573u, 7252356918084347016u, -6749037647963319453u, 4010150975238140970u, 2521771701245568117u, 1439878383557340669u, 6224178773276990009u, -2443101498642100726u, -5625929827989934073u, -7353299504184686989u, 1476097766095462311u, -132120066967154328u, -8972516757973629086u, 5360432248118514615u, -4570961614317004483u, -316478128321637665u, 3568430003632478014u, -7035604990136718008u, 5883298763040743005u}, {-5292865927667942161u, -4984472111562906439u, 5071677323418879377u, -4317159430717027812u, -1830435741595279121u, -4707911904564280582u, 2705042598900743096u, -7184269964323887647u, 1693181890550792883u, -1201952370713572501u, -657521837392755489u, 1204475718119758530u, 8403136751193486784u, 2907395509010878983u, 6291871101263722885u, -6509868014530327533u, 3267300819483384348u, -5604428005113691884u, 1439878383557340669u, 719646593333432399u}, {5071492765316082444u, -2148940448373730467u, -2146128047867387626u, -3029299210136225866u, -8406410325685867401u, -7560570460029518433u, 3551891485010038244u, -9110722007999519657u, -6565534410334372927u, 8608385360646975633u, 6019359820821277710u, 8552008933018525452u, -581718435925868548u, 2149362661439295147u, -5577184176066143623u, -5112528782172055951u, 2267085314312446455u, 8205185552808079989u, 2705042598900743096u, -5058846577834597467u}, {-524422491230497686u, -8295898393333104332u, -4990401742171450038u, -4104474683836872882u, -1693872652173431805u, 1472933662096647643u, 3911261303771207571u, 2995805723964776563u, 8904098903344043223u, -2839362138753426851u, -3763694229985136537u, -8735617354554384294u, 349978217600223558u, -7851549721343303766u, 5643317265469608685u, -4038082145700723894u, 8337924527986716811u, -9024144173198807079u, 3551891485010038244u, -4465033938393970770u}, {5554581269331697846u, 4986660588721271915u, -8547256147210043610u, 4680445546354949884u, 6891938331880717009u, 960076154922584071u, 3980861471656656739u, -2434462801669835734u, -6301837131538667706u, 3275933730259465043u, 6384802889790558297u, -4770335144894899566u, 2955173184923723867u, 4816287491912593054u, 5018269625032788153u, 677620671166948092u, -3139123608467007741u, -3075908009474586112u, 3911261303771207571u, 641074292253540156u}, {-5426992717629542906u, -9148240727189368374u, -4952247498876754817u, 5121197564576256414u, -8142252732286247879u, -2145473694937733621u, 8661551868145208386u, 7260154932035014227u, 763087945049075353u, 5271227323718057033u, -8967683674385846328u, 2898640521771519194u, 4320361701164895855u, 8373119956856552536u, -4204807008308196891u, -7839004182182445127u, -1184593870990864487u, 1526448888473261362u, 3980861471656656739u, 2240363927812131204u}, {826358227969615833u, 7708371779563209321u, -5632064391062080459u, 5373369901986131095u, 5550753117429979610u, -5957890445877877436u, -4013933923364959517u, 2254034905412042690u, 864041566547073437u, 4271619311766295898u, -6713784016473284371u, 3640165494873034821u, 2563908997664457926u, -3718964726307829731u, -382274781593952114u, -4560491191481247935u, -8907831361809662842u, -7545784029895860900u, 8661551868145208386u, 4754960980890162687u}, {794759246588757846u, 2644464884861696165u, -3774213234117656807u, -1084517043742125985u, -6240483430603109963u, 3170888315945039110u, -7581983896330945178u, -5218352751824848635u, -3956908427160609142u, 1771252858619515774u, 6349305197404939885u, -4512446067191384506u, 4726382287455425309u, 631539337591832174u, 5176193035528294969u, 812923958705160997u, -4332230832622575897u, 2352419245700259213u, -4013933923364959517u, 9112046317828835366u}, {4129035662689716545u, 6044501672888362313u, 6960836240670896190u, -5836752773000044510u, -2626043407750568323u, 8704834882432827181u, -4622963465723417903u, -8512555636947716604u, 5025538798637154349u, -336212471185917308u, 8916300132086589905u, -645097977601039511u, -2028665364020562384u, -808298597738111857u, -2647212695489175813u, -5063712748796787111u, -8762510914792011736u, 5133479201509987736u, -7581983896330945178u, -1257510520026350042u}, {-5007442913884071055u, 5344789675671160703u, 89252137052020564u, 4860305528136858412u, -2449447981020533717u, -8464985190319349276u, -5743827729771311954u, 3677194158370493370u, -4008524315506888028u, 2221522764591402527u, -819331934676214438u, -1113290178059148743u, 8930782635437951152u, -2137905383885854933u, 2611954121954321355u, -5568218688583292115u, 3998233064692405340u, -83654058985729825u, -4622963465723417903u, -4638736354919452422u}, {5998214297577713851u, 2370292619948545790u, 5304037392976178244u, -7922706100524315832u, -1914191258662467760u, 2738965765664216277u, -306357668141799897u, -9121632623918772035u, -5608425047545262071u, -3481628615829937519u, -328562905545380929u, 1119172735334217258u, 8691753170212335158u, 7597040667783604611u, 3268360351149224801u, 8117114863267931958u, -2128909847652337958u, 2130862561832614095u, -5743827729771311954u, -7354347189832117230u}, {4601861050756858333u, 2141170022825526004u, -6207215816491869213u, -3511170628486014579u, 3153475061934150808u, -4056994768919233924u, -4380797760576069735u, -8407694181558095557u, -7296654053837454978u, -6071095833074317569u, 4657928880939828111u, 4017177970972189926u, 778746889122449197u, 8827333755690859691u, 1921757206717075984u, 5201426881895662239u, 2505303486123520241u, 6836118553274051064u, -306357668141799897u, 6875310721841637238u}, {-6356174833874431007u, 5535455844909305055u, 3324146213619455943u, -452227432405564725u, 5519094823582743338u, -7832160038729889047u, 2537944873071121123u, -2386932196698211900u, 1323118923301240451u, 70001442571696827u, 3845575099301145542u, 8307901554083917925u, -5790257092350188798u, 7408579208945280827u, -2828570014354091091u, -6097560377788343517u, -8372491711409409404u, -5707081362650524574u, -4380797760576069735u, 4445734283946209414u}, {4582617466319324969u, -2112853227182032932u, -7857354091445735396u, 4502237623877801850u, -3029051390559627489u, 1643969527305324268u, 1918893514776477180u, 3999664957746949557u, 8716244136475958569u, 2701502067021707543u, 3867290501515510033u, 420289655019866428u, -8683661481340479633u, 2491429660374650196u, 4591816277916593126u, -7958898270979101953u, -7648912045701792355u, -6206988295250325043u, 2537944873071121123u, 8248478785626755853u}, {-4136239039732275501u, 3213713426280159152u, 4557574021086672454u, 8850022127936086021u, 6183447002098122852u, 6461574495169292282u, -6558316196389418680u, -6926402905396859510u, 6885211281755499231u, 2236594838225862817u, 4941100630508386627u, 8809818186897074779u, 1564522408938156225u, -5770871943181527465u, 3885221561310704883u, 786964499176787900u, -7120490767873909823u, 2119864775763868823u, 1918893514776477180u, -7774096206099228593u}
		};

static const int64_t __Pi__[N][N] = {
		{-1764948000692510, 2233943484838650, -650098571857205, 2571130357901472, 2217731597364393, 140190405690656, -3573594721285404, -2622549710980048, -6395125448428976, 893170982499632, -90888811353307, -2984690863421221, -1526982836530390, -1109192925320985, 829331119745731, 189744468553102, 2900167750062517, -2227969403508250, -5118363228508254, 1747688783087256},
		{-2603208488015749, 4769237529294647, -1005101319063597, 2968259666188082, 921170468934915, -1949616122684704, -2655155612666729, -1643149064859634, -5292106675576032, 479629148341585, 172098093360946, -2119291092433486, -1625273015339239, 454548390779861, 925289657678601, 872021330251441, 3405552539027625, -3813395578989659, -3472888374385559, -582758126709642},
		{-1771128227507148, 4841161166301011, -2100408208468989, 2412393794717051, 1647553738367865, -1398036968757272, -1642193984441312, 397054195052382, -3070289404279705, 2683540814141328, -3176997156807977, -1006413346911028, -1735483410439079, -416925870666655, -517490640822976, 1353058354887615, 4261461583037776, -5137210576326340, -3495724410564864, 411408897802867},
		{-2386622129196360, 3886118927265218, 112316978568137, 744760228999557, 314523471062983, -864499990585026, -3421870243338737, -2835464383964090, -7609429543818500, 1691304531875038, -379680016682346, -3311453208673825, -1513116173912963, 556697024294111, 1273787323970136, -619809548670653, 3629744729370413, -3504874330256685, -4054714506505606, -903559643864031},
		{-810710134322231, 2419560708253168, -1659927019385271, 2383066295437383, -137786616601490, -1340809064794357, -2516917151493807, -2020382986353103, -6066312517691970, -870150225139893, 232414373122914, -1445802574592553, -1226189468112796, -1191593080417774, 1986332188222014, 1754175384824281, 2345365436873181, -2332363647177215, -4187436671770155, -1657234430808804},
		{-2181832571861, 4735992569070160, -2960225030256009, 3993939463916391, 272824877689097, -1264329662040678, -4013022471959909, -3098760344970967, -3591122663308118, -1111555787860561, -1416590319807096, -1916520257825051, -2081079849486040, -1331450787840893, -432149670999554, 1836587329237260, 3063577562408115, -2983824274262729, -2534621641439487, 144853763762189},
		{-820330246544901, 2636867037258494, 143791888486548, 283304083303821, -416012568366787, -589094621733187, -2751224599050073, -1754405749920471, -4748907475901195, 1075568871020291, -18536413659528, -1709988830095289, -3096865127234373, -1905790342593081, -763090091367234, 844406264425290, 1337592830116658, -2705879797643343, -3050085429436990, -858376883423656},
		{71181436284708, 4058949986515669, -939322115837152, 2177830898743760, 1399778440470983, -1395124226971871, -1996665699651949, -3467872774220963, -5870917538381858, 1202314556403341, -281344358380619, -6241826010433695, -2638659837628940, -1764329622152706, -1055339865530205, -427211942489390, 2438710302422219, -3596526382741241, -3676738799690387, -339977182099310},
		{-1183178934521564, 3525644711072135, -2137405803292457, 2481910925755613, 27840486579894, -976147140872134, -1785684919986266, -424396519527605, -5249256562378858, 1812960448613075, -499554423022843, -810123337033000, -1770692891399310, -334627760211501, 1666428468082487, 985341598461795, 3507834750712202, -2884676339314243, -4187661905626403, -582356838524305},
		{-722617310554235, 3706997951558468, -993493913173900, 1384132240184457, 574484378182805, -1442300252267299, -2076853201892803, -3796183740164707, -5603580870447377, 1454258757996591, 1456414570159268, -4953200096179828, -2140280760042041, 1143636453768735, 3704666421101239, -220919776348813, 5060817935338454, -2915104024493818, -3329110249548709, 861053511730488},
		{-300107592426475, 4648896191762286, -48843867010025, 650134544424056, 897481364508008, -2209963406881061, -1539811186577445, -2919241678603889, -6945747420471920, 3941756544531726, 725493761595713, -4193577325586369, -2271561609381206, -1107897820600255, 742273978925740, 252946778254908, 3591327086379149, -3497655705002293, -3148744867267111, 37084323105129},
		{-333797028796079, 3150971511368808, -1519571040648328, 2255131480445366, 59990160266155, -2016903955060506, -1523952640861979, -1827961173517736, -6265243710033237, 481626047464234, -180416344188653, -5621849827378879, -1679929543269483, 714758096334880, 2131753003980338, 73344215870118, 3120707294112994, -2173439260714553, -3825420720520847, -616694898080296},
		{1246347669113111, 2990236174656453, -1453271925140973, 2266408850445285, -186283074163228, -1119934355941111, -846673461518468, -1988591206183199, -8162208028559694, 3509305280222769, 248621017286687, -2516128361979997, -1639477767252383, -874436000765561, 1463607690114040, 1458559829260071, 2877814264182249, -2041636190350868, -2550512399609358, 472201776554389},
		{-1227232792051776, 3267792598860238, -1092409048549753, 1158108201719478, 341892068832210, -951684334035855, -1840878275945506, -3308057794510524, -5968425118649869, -178039572352416, 882910113786602, -4112955011715567, -1518846365764526, -1940689569344476, 2311125695812858, 1255436312880107, 2093012763502962, -2793574431361419, -3839921129118408, -1001084909402889},
		{-2474690864195565, 3786403644661911, -668422389066118, 2646833917659284, 993713154111151, 179514146622458, -1973757540829480, -819659804248559, -2778157274313073, 552027726320091, 523173706975447, -1698084467618526, -1822342480690858, 595845953715838, 46139951333102, 1154461509453544, 2294987104501353, -3642450298898562, -2920624519950204, -292429983673675},
		{-331004143207196, 3956301187220633, -1734117221647669, 1014438453360474, -128806395947913, -1547543929765781, -1628743685301195, 2517248559649, -5933287209863921, 2277290109596905, -747914985720357, -896911626170946, -1912006313222847, -907189808165329, 116476037001309, 2519482199090648, 2720309321149930, -3070595259747566, -3343822470120977, -588533537798909},
		{-1471653081955506, 5434794153765282, -940036218531214, 2178336166343435, -239942351435056, -2069873208035215, -1563817146298834, -658311522840125, -4007804322644110, 2472229588437272, -637564015901144, -2867169343851451, -2109454614754064, 1760678744045012, 1843878122584520, 745180327224079, 4404946107880419, -3807370668462863, -3040841589404848, -1659631458919479},
		{46451287736733, 2155483741107694, -1869668837361930, 945133208211921, 352511942531373, -2864046482183671, -2815629186447931, -1692245164442363, -5645820946410324, 1146253351882820, -855013810332950, -1212208495649347, -1300734613634224, -1103152441145156, 1074587080211077, 1994444697658485, 3264007916582536, -2825944255806081, -4410897612273954, -455966533762912},
		{-162037916756504, 2653198322139790, -2440421894778561, 1016017305639314, 491302963864644, -2983977538627583, -3823509109116578, -1264764752732432, -4533694761463591, 2068010246834016, -512529466751310, -798192141515605, -1500134210984647, -982346577802451, -201693443623182, 412221853007145, 3304149370835390, -2106991578713916, -4914890779611857, 8997172064861},
		{-2602799465053454, 6307285961478536, -2420713210241858, 1018725628740710, 984515537677081, -2130959039512927, -3236818686430286, -2587597325615072, -3822627777769435, 63738952439401, 2692073657390089, -1922938946397403, -1676150669985968, -652128636656110, 724618300953946, 1283990141220853, 3613665876463011, -2807383390664246, -3251021743882179, 117165072429320}
	};


static _poly __theta__ = { .deg = 20,
	.t = (int64_t[]) { 0x43ebfa8d11850, 0xdb49379891445, -0x67c7a38c8d73a, 0xbb7ca26e2a9d4, -0x3919f737168c, -0x6c6f4b5656557, -0xc2c563d1a5739, -0xbc85b44d5f89f, -0xf23b20c7f900d, -0x44268ab46677, 0x12c98938fb729, -0x43f4068991ee1, -0x70424e8b2dd8c, -0x31f4271bf496a, -0x39f5388144a30, 0x9d14fc2bdaf05, 0x9f648aa1c5fc2, -0xcf1f05e6ea2de, -0xa326c215bff86, -0x237d90cbadef3 } };
static _mpnum __P__ = { .deg = 16,
		.sign = 1,
		.t = (uint64_t[]) {0xd38a4aa5f0d15c0d, 0x1a492619bacb053b, 0xa756c4c8676a2cc7, 0xf6aa607a79d82cb5, 0xcffaf035c7912dcf, 0x578088fb546e8053, 0x39f9e77fc5a7d519, 0x1d781509c1649be8, 0xe9d5984919726224, 0xdda2ff47cb3732fc, 0xfc82a0bbecb47552, 0xa681dd40133a7bee, 0xca9098d4c870e97f, 0x8e8ad494318a1464, 0x7505298b399c3183, 0xd7d330786f4f8808} },
	Gi[] = { { .deg = 16,
		.sign = 1,
		.t = (uint64_t[]) {0x1a98d5c564778db4, 0x9d3fe63077e190f9, 0x3791286def7df803, 0xafe6a4085049ab3c, 0xecf2b169b1b3933f, 0xdfe36148a9c34e, 0xa598da00ee9f2928, 0x84dbe1e66febe5e5, 0x1a8ace957ff587bf, 0xb4be930295502126, 0x76571b7af3b4d61f, 0xc9b7887cddcda516, 0x8af6a819fdea5ca0, 0xd794dc1ef2d79bc0, 0xac3f450ad95f832d, 0xd77cd25b1df17b2d} },
	{ .deg = 16,
		.sign = 1,
		.t = (uint64_t[]) {0x5ccf13631c097f72, 0xfc86a00c0174edf4, 0x1c589c48a12e0fb7, 0xaf8d2a7e727403d1, 0x68180924c538d03e, 0xff2a77b6f13eb422, 0x9318a85f4dcf25af, 0x6e391b9823af05e9, 0xf0b493c5807e3ba1, 0x1cacbb7251b36f29, 0x4bfdfe68f8ef0f35, 0x90ce7c70e75359b5, 0x485300333394e0d9, 0x2acf4d76e5c0deab, 0xf660fa834d29affa, 0x74a57da280d1ed90} },
	{ .deg = 16,
		.sign = 1,
		.t = (uint64_t[]) {0x4a10f489df54f01a, 0x265ea250c3a74a1b, 0xd9436e3fcf4d62a6, 0x8457c30c97e5be61, 0xd480acc20642572a, 0x842344e792ef5c15, 0x13f22d52e4993971, 0x9de805913b2b920c, 0xecb3bc26741475fc, 0x221d965a625fa47b, 0xb2f7cd56f125d02d, 0x993709c1d0f95a14, 0xb421c71c6867e3cd, 0xbe4074f0885d6060, 0x3458c8afc04a40b0, 0x3cb1f30e589e9f9e} },
	{ .deg = 16,
		.sign = 1,
		.t = (uint64_t[]) {0xab25021626200477, 0xf68cc889f530b3c, 0xef70ecf077f5db43, 0xc6743d9773971f85, 0x35b1b1929ab5e280, 0x87ab08d54978f5c1, 0x11edce06f1339169, 0xcfd906dfaf369edf, 0xef153bebdb194e2c, 0xee16ea23175d13c7, 0xfd715f13850b112d, 0xbbc5ec54d7fca8f3, 0x678d60874ccaac5e, 0xee74a29330b96a76, 0x5bbc0641457e2eab, 0xc6f93ba879a0ccab} },
	{ .deg = 16,
		.sign = 1,
		.t = (uint64_t[]) {0x45bc273791e88df4, 0x1f1f502df335fe16, 0x9b12e7f04a07b86c, 0x55206caab94792e9, 0x512d1718e7519c96, 0x2b854cb7acb71904, 0xdba689997c99a545, 0x588165c8c81bef02, 0x6689387dc7c1eeba, 0x1e22c94df913b78b, 0xdda8df930020af11, 0x7a8a130dc57aea61, 0x7e5237ef0c185d80, 0x1d4654bc6d9c1df, 0x810386a3961aca67, 0xd2df3bdb89ccf338} },
	{ .deg = 16,
		.sign = 1,
		.t = (uint64_t[]) {0x4c90a59ff6c8060, 0x1bfc62ec5b51626, 0xd4ed72f4d38091d0, 0xf3d8c90e4a3dabf8, 0xc90ad0ee184f7ea7, 0xf8caadcb39c0825a, 0xc2ec62ea36a52c9d, 0x432aedfc440b6f98, 0xdcf4c60de5e65132, 0x3d9e122e15078873, 0xcd828082ccab9cc0, 0x2da04374ccccaf63, 0xcdaf37f9573ef8be, 0x900ce54b74e17f6, 0x5fc1b8ea68af97c6, 0x424d5135cbb8143d} },
	{ .deg = 16,
		.sign = 1,
		.t = (uint64_t[]) {0x71f754551b8deb58, 0x610a0598ddaab460, 0xe44d491984aaa5a1, 0xe89d1e6825cf3642, 0x967e120fc54b9f6, 0x2be328fad1f5d21, 0x4024af44f8c62895, 0xfb98613c5bcbcc83, 0xcc99547a54383ada, 0xfe779ec2c8b90047, 0x7dad16cf562256bc, 0x37572c3ce58d356a, 0xbe207401bcb6382c, 0xb6daef1d47ed5e12, 0xc18ca2f54994381e, 0x565d401438f9fab5} },
	{ .deg = 16,
		.sign = 1,
		.t = (uint64_t[]) {0x28bd4761c270bd49, 0x2cf614a2b9a1f3ce, 0x280c536e645da426, 0x1495e31752a49e93, 0x6d473e4ef5ec6c56, 0x46eb6edc306447ea, 0xb3167b8b6b2808d0, 0x500982a68fd00f1a, 0xd38ac378050c60f6, 0x891d693e924f8063, 0x553af50151a13eee, 0x7093853be6135a01, 0x36f837ebfaf498d8, 0x5d65261cb76be22b, 0xeb02583e67d2ac43, 0x1565da5d024d7a16} },
	{ .deg = 16,
		.sign = 1,
		.t = (uint64_t[]) {0x26d06bb24b112a93, 0x64fc88f0d5ebcf14, 0x21d3f5915641e4e2, 0x553813a0da596ed7, 0xff6eb824cfca7c9a, 0x833a7afd858956b5, 0x7e04090ea0c490d6, 0xcc007046edabef01, 0xfea4d0ac80f083e2, 0xdb9454382084d774, 0x1aff97e8047de8cc, 0x897e6c3d0b97cf14, 0x9781d588804f0ae1, 0xc2f13500e6a63c23, 0xe394c264f21c263d, 0x318c9b2a229449fd} },
	{ .deg = 16,
		.sign = 1,
		.t = (uint64_t[]) {0xecb177a6600fcc9e, 0x637cf5e5bc3d0bc3, 0x68c3c37622c6bac, 0xae587153e5428e5d, 0x9f9512c1951950b9, 0x7d835b0a7509632b, 0x9588bd60b764488, 0x87266d66a6f74fbc, 0x2bc6b9ac690484, 0xaf6dad0d1b82310d, 0xca93c27056f82379, 0x5904c6291f75a0e9, 0xbb12688507758b2a, 0x70dbf9ec20caff91, 0x6199c431b41ce168, 0x3675e2953c6df2c2} },
	{ .deg = 16,
		.sign = 1,
		.t = (uint64_t[]) {0xace6a7914ae1c09a, 0xf353a7a7bbd136d5, 0x78b66d641b03a689, 0xc4105bae9aa7123c, 0x54e57ed0d9f76bc3, 0xa80a2eab468c5e1a, 0x2546294bdd0d399b, 0xcbdc7ab90086c650, 0x12522f6e9d45cad6, 0x34bd3fb8297ecc6d, 0x1d92eb045a234eb4, 0x64ca45432ac6f805, 0x762a37dc51868a75, 0xd9b20e6e94c099f1, 0xe4d98c3cd9ebb792, 0xa9736680e7467a91} },
	{ .deg = 16,
		.sign = 1,
		.t = (uint64_t[]) {0xffa308e90ad78a0e, 0x4b064a0bf77777ca, 0x2c627ba59e177b38, 0xe3002be46a5a94dc, 0xd32e0a232aae909a, 0xea594f91eacc888b, 0xc1e4f37338d1db63, 0xc1af97e0a03f8d6c, 0x24e00a533caf947, 0xe2381d8236a91213, 0x842f51e1017f63f7, 0xb6b7001d2fddb376, 0xd93b0e889d23ca51, 0x4f2e1565c8fe4838, 0xd1dcc762d08da9fe, 0xd44ced2da86bf2bd} },
	{ .deg = 16,
		.sign = 1,
		.t = (uint64_t[]) {0xc36deef1bac69522, 0x900ff3f5cf2f5a24, 0x310d0cd1dd3c2ed0, 0x50fa4f5f59aedd4d, 0xe8ddeaad990b2fb5, 0x301eb67f26c5b213, 0x4895481a434325b8, 0xbd6b521c1ba97e9a, 0x395568e0ba48ff03, 0xe9dcf4c768b12af5, 0x570d64abd6973958, 0x10c4cae160fc7bb4, 0xac67fc164613f988, 0xda0bd156171b5c52, 0xbdae959f315ceb57, 0x16eb22ec32635ce4} },
	{ .deg = 16,
		.sign = 1,
		.t = (uint64_t[]) {0x658cab5e1edbe289, 0x4037351202b95c3, 0x5793ccdf553f51ef, 0xe968cb612311c43, 0x96b9cd82cbd8e664, 0xd49be7a818389bdc, 0x95f5b256e84682f6, 0xd66e2cc4cf5efd15, 0x8facbd02975fba44, 0x277cee83d08ae04d, 0xe3208d32f2a0a190, 0xb97287f30e95b262, 0xdee33141221638bb, 0xde26f3fe45892d00, 0x72c8f0f9eeed2d6, 0xa4a84bc3d9fba261} },
	{ .deg = 16,
		.sign = 1,
		.t = (uint64_t[]) {0xeed998c974c3e8de, 0x66425c748ec49a1, 0x5c1b7ee523dba7ab, 0xf3de1d6585b54a18, 0xdd2ee1cf7b2175cd, 0xa04638461694656e, 0x55d5b048baa6f79a, 0xad6e0fc100d27d52, 0x3853584de4380e7f, 0x90f5b401b241c98a, 0xa587b833218cd075, 0x4229351a0f39f926, 0x69d822ccc53fe12d, 0xa038076121aa3162, 0x15ed51ae6e912a4, 0xd50462a00391193} },
	{ .deg = 16,
		.sign = 1,
		.t = (uint64_t[]) {0x5223551d2b3547fd, 0x6c3ce8af136155a9, 0xbd28199d5a6a28d2, 0xf0888a13421f164f, 0x5163c354abb43f3b, 0x727e8d37e4a5b51a, 0xf269c04e52aa305c, 0xa436629b65372928, 0x82b060454658e1f, 0x5b79b84116f47a7b, 0x342f2cc3f7800ef4, 0x8e48ee6e28ee338b, 0xd027832ec87572c1, 0x6cc9168de0925935, 0x35c196cbf5d98766, 0xd400d645cb7f585b} },
	{ .deg = 16,
		.sign = 1,
		.t = (uint64_t[]) {0xb0ec2a2b5c8582f7, 0x7b6a0413767b8f40, 0xe0b7729ea6f45b30, 0x316591e74c80cd89, 0x4155f86327fdcdf9, 0x1d4b651dd6ff3507, 0x4690eccc54f986a4, 0xb6980527cba71442, 0x9f4a9c8904b6f4e4, 0x9328dec1f21c54f7, 0x570501b9fd8cfe46, 0x3af3ddd2e34d871f, 0x211ddd21a783af73, 0x534f560ba8806d95, 0x3a9164668c0731d6, 0x7947f23b3e2ab0a5} },
	{ .deg = 16,
		.sign = 1,
		.t = (uint64_t[]) {0xcee2ae0f00cdf026, 0x46a33a1eb049cbf3, 0x7e2fb9604187c, 0xcdd191ea25561446, 0xa87949645a66d9b0, 0x247a1887b1bebff6, 0xa49831bf629ce8ab, 0xe6d8afb7c62b2cef, 0x22e63f9001b14809, 0xd562aaca12e86a6, 0xe4fe82edb2735fd3, 0xfddcd9fab35b0c15, 0x6f8472933563f519, 0xe2a56d974821766, 0xfc6cbe5cc0dd8051, 0xb8d77a93d016484a} },
	{ .deg = 16,
		.sign = 1,
		.t = (uint64_t[]) {0xdbddf784b608b11c, 0x9a31787bcb491923, 0xb4aefd46c171546f, 0x7718be937533ede2, 0xcae151cd721cd6c1, 0x6e2f2ef0bca4387, 0x55b0fcab56b100a7, 0x22733fbf51bf5254, 0x2f3ea288ea96ba9c, 0x5c03b50a6f35305c, 0x81ed625b6239f20e, 0x57c4a24d9db7cc23, 0xa3a4c9c881765de7, 0xadd208c6a6965bce, 0xfa4346d4affc7223, 0x5dbe280b25daf1bf} }};
#endif
