#ifndef PMNS_PARAMS_H_INCLUDED
#define PMNS_PARAMS_H_INCLUDED

#define RHO 58
#define N 19
#define _PRAGMAGCCUNROLLLOOP_ _Pragma("GCC unroll 19")
#define LAMBDA 2

static const int64_t B[N][N] = {
{2080219343775604, -10886437907770715, 6716607207313294, -8830153468104250, -1284070458809801, 2030737121280223, -2319116709080253, -6243296660846026, -4394221811396661, 3116875721570772, 666573976652417, 5988183680160507, -2240044319961929, -1202010915678918, 1629558992480915, 904267166040586, -3597853307648240, -546171943284073, 2136001797970401}, {10886437907770715, -6716607207313294, 8830153468104250, 1284070458809801, -2030737121280223, 2319116709080253, 6243296660846026, 4394221811396661, -3116875721570772, -666573976652417, -5988183680160507, 2240044319961929, 1202010915678918, -1629558992480915, -904267166040586, 3597853307648240, 546171943284073, -2136001797970401, -1040109671887802}, {-4272003595940802, -2080219343775604, 10886437907770715, -6716607207313294, 8830153468104250, 1284070458809801, -2030737121280223, 2319116709080253, 6243296660846026, 4394221811396661, -3116875721570772, -666573976652417, -5988183680160507, 2240044319961929, 1202010915678918, -1629558992480915, -904267166040586, 3597853307648240, 546171943284073}, {3060108804213945, -4204359237312387, 5033202488620658, 6214113975113435, 362924914519150, -683327587569851, -2218804592001625, -9167083705161177, 3053384435230033, -5957071814255353, -3940671877272519, -3777322045931169, -589241661236664, 2006000057198924, -4086056773870709, -485313883393016, 4957365366200417, -8748912584620599, -5487224354649807}, {1808534332081172, -7195706615296480, -1092343886568146, 4272003595940802, 2080219343775604, -10886437907770715, 6716607207313294, -8830153468104250, -1284070458809801, 2030737121280223, -2319116709080253, -6243296660846026, -4394221811396661, 3116875721570772, 666573976652417, 5988183680160507, -2240044319961929, -1202010915678918, 1629558992480915}, {-7195706615296480, -1092343886568146, 4272003595940802, 2080219343775604, -10886437907770715, 6716607207313294, -8830153468104250, -1284070458809801, 2030737121280223, -2319116709080253, -6243296660846026, -4394221811396661, 3116875721570772, 666573976652417, 5988183680160507, -2240044319961929, -1202010915678918, 1629558992480915, 904267166040586}, {-3259117984961830, -1808534332081172, 7195706615296480, 1092343886568146, -4272003595940802, -2080219343775604, 10886437907770715, -6716607207313294, 8830153468104250, 1284070458809801, -2030737121280223, 2319116709080253, 6243296660846026, 4394221811396661, -3116875721570772, -666573976652417, -5988183680160507, 2240044319961929, 1202010915678918}, {-1660174692689704, -9379939889179049, 214350256984709, -4434613840906822, 8458309926554487, -10300850131944492, 4789139160840269, -8216415629426591, 8912123032526366, 7496050302524048, -5073220008543572, 8941521210457765, 2843034984723213, 4530031195842440, -2143316883424719, -1296220855489446, 3250784688236609, -4547889034945663, -4899419845329046}, {4229280502498629, -3596121154978464, -6122218947566803, 3366402480377476, -1126013633449611, 1699523059945197, -4536652879081652, -739136382435466, -8345358213866362, 12356505520929776, -11697687994487427, -2359865142114375, -3080843153364228, 3046281255003269, 6323075127734494, 5123603395303775, -9233389893013328, -4481449836809371, -841563992781778}, {-2131186664521242, 2029423529882655, 4576503492897405, 171317077828324, 3738549382710928, -8439726714609120, -5767463210085820, -8427685425966979, 994802504390403, 1674096928000227, 7121205909693732, -7631342461057121, 317786114870292, -8443378667088265, -5965709977283789, -6359037052593362, 4992637205543805, 6165489631306227, 2396449766884287}, {1683127985563556, -4229280502498629, 3596121154978464, 6122218947566803, -3366402480377476, 1126013633449611, -1699523059945197, 4536652879081652, 739136382435466, 8345358213866362, -12356505520929776, 11697687994487427, 2359865142114375, 3080843153364228, -3046281255003269, -6323075127734494, -5123603395303775, 9233389893013328, 4481449836809371}, {4480088639923858, 2404021831357836, -3259117984961830, -1808534332081172, 7195706615296480, 1092343886568146, -4272003595940802, -2080219343775604, 10886437907770715, -6716607207313294, 8830153468104250, 1284070458809801, -2030737121280223, 2319116709080253, 6243296660846026, 4394221811396661, -3116875721570772, -666573976652417, -5988183680160507}, {-3442148146114640, 191180389885041, 14775582873984946, -6117473278111280, 7471180784439672, -2656446556150416, 11087540251921402, -4787909124207901, -2686409549965956, -3003734283958095, 1142407427412623, 1954720065590189, -4362117537142298, -194487964331108, 2762581222014140, -4487030975054606, -2078056277099030, -10619109602853253, -4733975345353974}, {-10974448709299614, 3060108804213945, -4204359237312387, 5033202488620658, 6214113975113435, 362924914519150, -683327587569851, -2218804592001625, -9167083705161177, 3053384435230033, -5957071814255353, -3940671877272519, -3777322045931169, -589241661236664, 2006000057198924, -4086056773870709, -485313883393016, 4957365366200417, -8748912584620599}, {2404021831357836, -3259117984961830, -1808534332081172, 7195706615296480, 1092343886568146, -4272003595940802, -2080219343775604, 10886437907770715, -6716607207313294, 8830153468104250, 1284070458809801, -2030737121280223, 2319116709080253, 6243296660846026, 4394221811396661, -3116875721570772, -666573976652417, -5988183680160507, 2240044319961929}, {3197090255879318, 237115597590463, -47400385878797, -9771319299946608, 7197776127036301, 11617273746189705, 328524754200899, 6957667718420218, -3214837133024396, 61644546231143, -9976210223031970, -6964187083134903, -1139958049189428, 86652947841629, 2727921295655020, 1072424691935706, -2448346120935189, -3276526382110767, 9929240513932774}, {-4974778920289227, 863778840546221, 575193447076647, 867823859518981, 9499006376003849, -1091677488626071, -4512360590693622, -3189979938990244, 7776489233382888, 905350055864429, 1166349146548577, 15609363693589574, -5943476839234506, -954404603664900, 2976506685411705, 5845597606017342, 9135271947734020, 6489334795958663, -904195750419778}, {5243710771310683, 12861437305703508, 8918164269633149, 4940568861909150, -6656531352072086, -3998156238350206, 2059919807012814, 1712180187797258, -8676844794846947, -2841991196047453, 6295775746571442, -146766138615687, 13147266410094778, 71068564829675, 1671043964211665, 5816653961365819, -555560947874265, -1647798331747932, -1100967731778859}, {17497825169241198, 10974448709299614, -3060108804213945, 4204359237312387, -5033202488620658, -6214113975113435, -362924914519150, 683327587569851, 2218804592001625, 9167083705161177, -3053384435230033, 5957071814255353, 3940671877272519, 3777322045931169, 589241661236664, -2006000057198924, 4086056773870709, 485313883393016, -4957365366200417}
		},
	B1[N][N] = {
{-374587501891664357u, 8878745734628521446u, 7721980950772473807u, 2351393348435513014u, 6928365716782245185u, 1639768298055660953u, 5922947565027440965u, 398145218535207897u, -5164696429820849391u, -5939024519348285432u, 5910304476844284411u, -5956358305252511787u, -6919811643374026151u, 2552462338693852183u, 2991590196926422649u, 3811199267228182118u, -1652640454794008735u, -903967084398844585u, -7423779913985325800u}, {-9152453846861581565u, -1219244436144474760u, -1486060395605703895u, -6842991603747130017u, 7144485447769681337u, 5939024519348285432u, -8169171056780859433u, -5594155698652370493u, -4250221913455219546u, -5563132016487957548u, -6000621850415623926u, -3588491094686332769u, 1254495236258800838u, 1096898112176712176u, -146006317324153271u, -7269268408285249789u, 112982190725953285u, -1414183142675274694u, 8178548571908356086u}, {7367187749180850782u, -8589084789651323405u, 4843775257680485877u, -6977315159163232242u, -4620672935076887844u, 5563132016487957548u, 5964492380525618392u, -4128283253330640384u, -2405873111357961132u, -5959516912620099842u, -3348843912913860651u, -2558137073053444428u, 5481173507926417208u, 6122578962036004391u, -2690282737019052846u, -7142134895948471479u, -4961569299566083379u, -2927049840585516540u, 8826082316988788813u}, {6505285889917634208u, -1718270993690824204u, 1998482682021879644u, -8886566753205616382u, 3959123036245706114u, 5959516912620099842u, 8581479630354344054u, 8257876550888085444u, -7752882540570576419u, -539588114213941613u, 7465655622370498543u, -3480989576879469069u, 9089852552896723763u, 2379576361649595611u, -1630428827604480145u, 4655157353303190378u, -2675931114939041930u, 8197392114671257875u, -299143292201341462u}, {-2329224237470797658u, 5708900765026777055u, -5395244256901054052u, 7657804000457316262u, 967617933303179865u, 539588114213941613u, 3386287932931016735u, -6114051921111128409u, -590046456632123537u, -1409184925217921618u, 6656090646633248214u, -9130527702064064149u, -5581945435949043514u, -3304621317256572868u, 5180819296986214139u, -4300128045465267150u, -4158438009796631355u, 1244608787144846391u, -6814271561243128996u}, {6638113888506136693u, 5989836024913759768u, -342846916563047754u, -164576138073075227u, -4729083920238393749u, 1409184925217921618u, 2685279871568494668u, -7342186846125308796u, -2905582108349456490u, -4142200407209283584u, -7369627893521909807u, 2520693571973974886u, -8174254142801791852u, -2614685930450443502u, -5625355608244548867u, 8079598072785660373u, -237465895052197940u, 4125709528268038597u, 4586438707740349232u}, {8909309043210793380u, -5244916710430481418u, -8422769021070144979u, -16490878941244987u, 664210608344780055u, 4142200407209283584u, -4668774326147719580u, -3594550749013329035u, 8324627058050648299u, 6371093840304357518u, 211299242389130734u, 2931066999969118056u, 7579652741177506736u, -7744228879250581963u, 5839896394015581987u, 567160354227684105u, 1940380760358729192u, 975397079785775210u, 421794072328344111u}, {2382187820902732357u, -6103860157724701785u, -1241028872774389006u, 7346490920090132728u, 4683816755573178824u, -6371093840304357518u, 3957335711728768637u, 1484514826538103356u, 1112553640290704603u, -7246486098108060263u, 5600575517567427090u, 3120128636435594665u, 1654169988654599843u, -1670660867595844830u, 3912329980226217948u, -5427972738429646810u, -3551321260742297731u, -9193944254752971421u, 731736492300759332u}, {-4863602363242152696u, 7142540977268538648u, 6794123106303866817u, 2006313720848519932u, 1415242660540611550u, 7246486098108060263u, -297326525742102576u, -4531256364397455537u, -5719530066640774693u, -8444574434905839842u, 6509439489530450855u, 6392776861358050373u, 2066806434204194375u, 5279684485885938353u, 6250075922317612346u, 395084268170529516u, -1672221497081092072u, -1793206151248176273u, -5411481859488401823u}, {-5410655634147568858u, 4786310683530364958u, 4474317327461900616u, 8208963487555535501u, -3596948593527679966u, 8444574434905839842u, 941066890105137804u, 1255367060431443509u, -1399831520595263778u, -5022196823708149743u, 6549987179842411097u, 6366738550490012828u, 6203477861478547609u, -4197164140630027677u, 6802758208613667487u, 2770411558245164408u, -6932065603128726498u, 4052848688498577187u, -6951406651919603212u}, {-3241939837704793683u, -4009848142523489713u, -1580141233449042382u, -969348135209572556u, 1129587926671238965u, 5022196823708149743u, -6875636371005068759u, -2222532061998915281u, -5455059022777667750u, 39390215677008028u, -7504285508114103641u, 6986006837966065756u, 5676698542697282989u, 2532264944858252512u, 6288672854712166528u, -6585556284764863010u, 3908990274823186946u, 8303457224581460567u, 764097837396644476u}, {58998028327486417u, -7686953978348548528u, -961812707286693813u, 8342847440258468595u, 556631688251032282u, -39390215677008028u, 4345029988293325036u, 8126307302536897364u, 2779106922632845796u, 4967850382388131972u, -5155605143249847300u, -8201619491368002869u, -1686458212824271665u, 717110077614699109u, 4173139173965608499u, 9174750297721351932u, -9131888194369341296u, -1213491493517541181u, 3652224301389153105u}, {-5111062391981043383u, 8434752066690852878u, -817703249259543700u, 3754358888870590791u, -7844154479592688546u, -4967850382388131972u, 2860035041304389424u, 5265956100886761525u, 8810345155748124450u, 4410929522321210388u, 1969514759003533677u, 7219153522083764068u, 1005580891832443932u, 7337266548426024663u, -2777968754075660009u, 5845708948914634685u, 151423680685513638u, -5774204782563046195u, -8302645640778627128u}, {387976345370188741u, -2595812900516040126u, 8177720851919418061u, -1363275260241835807u, -5119722037470566014u, -4410929522321210388u, -4307354691522734660u, 9007808851733250243u, -5265508126489841121u, 7077439972992549810u, 9055328728118012759u, -8027607517155890400u, -5417379781572275163u, 9171738670442865954u, -9017517741088897052u, 1115357547856603383u, 6552873953509734006u, -658112049287212692u, -2497138491343833910u}, {-6242172687095253884u, 6506383139351977079u, -8882406345838848553u, 6419327923705337118u, 3084286143666891789u, -7077439972992549810u, -8950320912960596023u, 2076225700940980362u, -4609154397521534810u, 5997291509124825902u, -5141317637667937054u, 8065418504185006107u, 2886061268466567367u, -4249336528708403174u, -8407110453661422823u, 2578838389490470312u, 6702987288273261667u, 5998415133302483570u, -2639001341013987408u}, {5384060090520523485u, -6071224701021871271u, -1524420899092277630u, -6451037431282242144u, 6519432817992518426u, -5997291509124825902u, -5862374435152029404u, 306276447223552339u, -3929341706489758649u, 5127592245173544106u, 6063797502897974387u, -3167102521804814368u, -8779212989214242029u, -3248203160789972469u, 4251912166456412015u, -1324391617861242754u, 5885999446619419221u, -8783762325072677213u, 3942113649732306119u}, {7723561755543077350u, -6027969629381516204u, -2204340742576458941u, -3656170079899133107u, -7502593317929140648u, -5127592245173544106u, -5580677661119640043u, -2278779728220023722u, -4686974085038656814u, 762394301788241575u, 96810771505988734u, -4963931882550350846u, -6192275893842971560u, -258761537439270584u, 4869278062496638913u, 2282265865022084021u, 1194476025722327223u, -1992836158386850710u, -7743719541566579872u}, {-6548407951194518776u, 4054286652490169750u, 1899680563561186668u, -1230441856598609135u, 7324423817907083030u, -762394301788241575u, 2612065068365426109u, -840319424233866655u, 7079031713126620979u, 1079782213038707726u, -9019901382667081672u, -8516723357156573123u, 1084303702497696499u, -4740473782396829606u, -8772511334687806749u, 7483562691071287517u, -5973796599404482564u, 8632263251310495954u, 8733303296304326165u}, {7573819908122043874u, 4495145670781709891u, 114503769900615231u, -8734698609360347936u, 1769979990548741938u, -1079782213038707726u, 1895187533528698523u, 7983718606038369705u, 4281741731301365706u, -3279536596111321906u, 8580609877385030858u, 9171054713511236318u, 6814116023638349219u, -8044557880236958354u, 7124472299330733502u, 2368742389140290881u, 5855904680709682597u, 7982323292982347934u, -7307011302739130992u}
		};

static const int64_t M[N] = {3060108804213945, -4204359237312387, 5033202488620658, 6214113975113435, 362924914519150, -683327587569851, -2218804592001625, -9167083705161177, 3053384435230033, -5957071814255353, -3940671877272519, -3777322045931169, -589241661236664, 2006000057198924, -4086056773870709, -485313883393016, 4957365366200417, -8748912584620599, -5487224354649807},
	M1[N] = {-5508381981552531021, -7514504165386373513, -3382278599051147925, 3248021423163885360, 2118315324979331657, 1704596715590118841, 1071898867171494745, -5882275316432527883, -4008777712624433071, 5855683172911640562, 7530048182507086524, -7548335537964204515, -3052231770061664733, 6478661212917184595, -1436841968679823858, -6620928146938141479, -7774975333468546747, -1051971942311215316, -5747238777794628558},
	matrM[37] = {-8408718474624774, 10066404977241316, 12428227950226870, 725849829038300, -1366655175139702, -4437609184003250, -18334167410322354, 6106768870460066, -11914143628510706, -7881343754545038, -7554644091862338, -1178483322473328, 4012000114397848, -8172113547741418, -970627766786032, 9914730732400834, -17497825169241198, -10974448709299614, 3060108804213945, -4204359237312387, 5033202488620658, 6214113975113435, 362924914519150, -683327587569851, -2218804592001625, -9167083705161177, 3053384435230033, -5957071814255353, -3940671877272519, -3777322045931169, -589241661236664, 2006000057198924, -4086056773870709, -485313883393016, 4957365366200417, -8748912584620599, -5487224354649807},
	matrM1[37] = {3417735742936804590, -6764557198102295850, 6496042846327770720, 4236630649958663314, 3409193431180237682, 2143797734342989490, 6682193440844495850, -8017555425248866142, -6735377727886270492, -3386647708695378568, 3350072997781142586, -6104463540123329466, -5489421647875182426, -2873683937359647716, 5204887779833268658, 2896793406772458122, -2103943884622430632, 6952266518120294500, -5508381981552531021, -7514504165386373513, -3382278599051147925, 3248021423163885360, 2118315324979331657, 1704596715590118841, 1071898867171494745, -5882275316432527883, -4008777712624433071, 5855683172911640562, 7530048182507086524, -7548335537964204515, -3052231770061664733, 6478661212917184595, -1436841968679823858, -6620928146938141479, -7774975333468546747, -1051971942311215316, -5747238777794628558};


#endif
