#ifndef PMNS_PARAMS128_H_INCLUDED
#define PMNS_PARAMS128_H_INCLUDED

#define RHO 105
#define N 5
#define LAMBDA 5

#define _PRAGMAGCCUNROLLLOOP_ _Pragma("GCC unroll 5")

static const uint64_t Blo[N][N] = {
{5156556791914294329u, 12250813943217841751u, 6913302043595419827u, 15737550862160627738u, 3016088470411687157u}, {5612630044532625743u, 583300085959084122u, 10950141944155047667u, 10205795341103427827u, 5224860262194436632u}, {1072131080932848788u, 2111504419510264324u, 1394132506406554362u, 15636767748069610029u, 15329872489206846750u}, {15128284669895192916u, 10595382776325908841u, 12298399753639659452u, 4137623014650645549u, 601204533857192112u}, {2685942344382356958u, 3095438370220429849u, 13509866038838211095u, 9989840406841816977u, 8319303073338941772u}
		},
	B1lo[N][N] = {
{12885762085785096014u, 6457357209628070609u, 1225226917278450377u, 15662229245925986917u, 1282048871289738603u}, {9148050082286628082u, 4125450837507576326u, 17156647534777139217u, 1771657328066528019u, 4066563699073303302u}, {10736290326262787608u, 18025364653536985374u, 8775444948482676270u, 2455663132208729329u, 2294906371006775283u}, {9357581129857196558u, 18285402576452067734u, 10326873640857447383u, 12791940130660088788u, 18285987312507597570u}, {4994167956267422483u, 888233328419416827u, 16387055892664935064u, 17530546899108367383u, 5494047181847508782u}
		};
static const int64_t Bhi[N][N] = {
{-72523789760, -57257820785, 304263149304, -35011040528, -118379745912}, {243880852213, -186623031429, -117640117876, 152651158402, -34271412491}, {125250670563, 255032281107, 8026952587, -261225156191, -107834369752}, {222767206782, 4114540081, 166870986072, -195689151517, 177116822769}, {24035994161, -329829559640, -36717839230, -266378863773, -241173571370}
		},
	B1hi[N][N] = {
{7779456209617092867, -3718432683664471865, 5864454556873715175, 2951792260506190730, -5564422618008081649}, {-347641954657092197, -2823577520993070655, 3688550929403370242, -2515065530474644745, -8516214878514272380}, {-5933466275273483084, -960627483343876104, 3833725772222075086, -4755223291427284903, -6001149348039627635}, {6040279312178293921, 6798146156232312295, 2424169040458540912, -4344704874578888350, -1245926056612342733}, {-7472755933740317001, -6112186889059232366, 4962981068985823727, -5972596239412149371, 3098778817966545617}
		};


#endif
