#ifndef PMNS_PARAMS128_H_INCLUDED
#define PMNS_PARAMS128_H_INCLUDED

#define RHO 117
#define N 9
#define LAMBDA 2

#define _PRAGMAGCCUNROLLLOOP_ _Pragma("GCC unroll 9")

static const uint64_t Blo[N][N] = {
{1814184336542520691u, 18434286441528155387u, 13400646202286064991u, 16224685130773547480u, 14689569068188891860u, 12314243442800514549u, 5848615033643077895u, 10598936022847299652u, 11491680225726877482u}, {13541421412383240109u, 13528963780201843880u, 8482865908778357255u, 6260806965842353119u, 2503631960321693363u, 14817875403122207912u, 2219746363055734191u, 12818682385903033843u, 5863618537920359709u}, {7699688953290505755u, 2225355260860588707u, 480785562895918246u, 16144644271082748633u, 6989088540401625690u, 8367017206026437432u, 2954657843301068486u, 16202367624707293167u, 4863623819860255995u}, {15695616101724503928u, 13910127695965348268u, 16632559737167030925u, 12457632181396229u, 5046097871423486625u, 2222058942936004136u, 3757175005520659756u, 6132500630909037067u, 12598129040066473721u}, {15254131074039916861u, 7619648093599706908u, 12971618806782874153u, 14980303399831392745u, 13250687080740739224u, 12592520142261619205u, 1738960800159815945u, 15120782188529836826u, 17321274071228285635u}, {16195804068747019654u, 15254131074039916861u, 7619648093599706908u, 12971618806782874153u, 14980303399831392745u, 13250687080740739224u, 12592520142261619205u, 1738960800159815945u, 15120782188529836826u}, {4536616377744203348u, 1814184336542520691u, 18434286441528155387u, 13400646202286064991u, 16224685130773547480u, 14689569068188891860u, 12314243442800514549u, 5848615033643077895u, 10598936022847299652u}, {8719496433989039626u, 10747055120419045861u, 16221388812848962909u, 17965958510813633370u, 2302099802626802983u, 11457655533307925926u, 10079726867683114184u, 15492086230408483130u, 2244376449002258449u}, {15744876273617552444u, 15439003431857871824u, 15652377781745357368u, 2692425032647119029u, 9483092602035276115u, 14488036910494001480u, 8954023572986232563u, 13708595538270457888u, 13272339867352748939u}
		},
	B1lo[N][N] = {
{6179045434679323905u, 1680063740663635552u, 11552407191755330327u, 12317695409103002596u, 14492730697664384565u, 6848079501468797062u, 7895645746560430467u, 11380080483314062569u, 16541646020755286735u}, {5386599849731853495u, 2647546867828960406u, 6848079501468797062u, 9832067490286873107u, 2624128889816512923u, 8363682033057835545u, 13964739861937060994u, 6894336881954221289u, 11380080483314062569u}, {8904860323926369921u, 6776479849891797635u, 8363682033057835545u, 4732998762137333586u, 6815669040030646083u, 12456196380103386030u, 16688012491122340858u, 11598664572240754554u, 6894336881954221289u}, {71599651576999427u, 6747808778040997314u, 12456196380103386030u, 3016280514056042758u, 10294858260286498327u, 11548667802167979669u, 14495390893926334983u, 10083062040651716071u, 11598664572240754554u}, {1615873255016838231u, 2215925732395916073u, 11548667802167979669u, 7833148937268745822u, 2966283743983267873u, 13311138774342541085u, 4553485927149305783u, 5990547693606165586u, 10083062040651716071u}, {10240270647707469957u, 8737006521791171382u, 13311138774342541085u, 11195714508658510542u, 11061225670959570836u, 10799432681252013695u, 16769613273021959552u, 6898076271541571947u, 5990547693606165586u}, {2811661280376808287u, 16895564664777618817u, 10799432681252013695u, 16575471758196171059u, 16004599496304358651u, 3810196105908529762u, 6890597492366870631u, 5135605299367010531u, 6898076271541571947u}, {14862318183274473884u, 17004366008116437958u, 3810196105908529762u, 9617222790947531780u, 13487591592563128874u, 14133327180790978094u, 18061723845114498577u, 7647311392457537921u, 5135605299367010531u}, {12241810746845127353u, 9898849310259433568u, 14133327180790978094u, 13527958404275646397u, 168200598661947727u, 4658070309801109038u, 12518812688845894221u, 14636547967801021854u, 7647311392457537921u}
		};
static const int64_t Bhi[N][N] = {
{-119892145987102, 400409405436082, -191793628252135, -534697293980438, 44345130416681, 139616709112179, -410297496603097, 47955165947050, 388037850437242}, {352740460959962, 753149866396045, 561356238143911, 26658944163474, 71004074580156, 210620783692335, -199676712910761, -151721546963711, 236316303473532}, {-255251604131359, -355890113104375, 215775442345135, -641787812330132, 267340643822554, -5328820567826, 557745994438549, 347125418921206, -22085484250828}, {-95910331894102, -776075700874486, 119892145987101, -400409405436083, 191793628252134, 534697293980437, -44345130416682, -139616709112180, 410297496603096}, {363398102095613, -362342122481053, -132894599698503, 70829912665129, 326255678711514, 566510896796710, -415452155255896, 490066265366420, -31024340349023}, {-62048680698045, 363398102095613, -362342122481053, -132894599698503, 70829912665129, 326255678711514, 566510896796710, -415452155255896, 490066265366420}, {776075700874485, -119892145987102, 400409405436082, -191793628252135, -534697293980438, 44345130416681, 139616709112179, -410297496603097, 47955165947050}, {44170968501655, 255251604131358, 355890113104374, -215775442345136, 641787812330131, -267340643822555, 5328820567825, -557745994438550, -347125418921207}, {-390807743914994, -428461638445410, -97488856828605, -397259753291671, -777131680489047, 615128868166656, -338344718402711, -205291963124511, -358069281527789}
		},
	B1hi[N][N] = {
{-8911772021178367160, 7587268722703402577, -6533786301867894564, -1353488901800170230, 5644409720529303069, -8836406607011429211, 1481790851426995020, 3862534834129286438, -6751817586427135218}, {6996940516876862600, 1108365971350442846, -8836406607011429211, 8708104657384604419, -3438077922384464223, 4290920818729132840, -4517458290409701423, 6533786301867894563, 3862534834129286438}, {-7642152273218337410, -4928487218295553449, 4290920818729132840, -8481567185704035838, 9136490641984450821, 5270026735000140196, -4984564382586846320, 8836406607011429210, 6533786301867894563}, {-3907919388715875762, 5855700272552017036, 5270026735000140196, 8196104833290741960, 8701417321137761411, 654923456280414983, -1243355257224110646, -4290920818729132841, 8836406607011429210}, {-1564779453822884196, 2979012087230264641, 654923456280414983, -7607673032347046299, 14621682559727733, -1549221919281048245, -9212714354125137594, -5270026735000140197, -4290920818729132841}, {2291014647769875555, -8839164870403248033, -1549221919281048245, -77134767956319480, -4865974132898961703, -7593051349787318566, -5451647670450838543, -654923456280414984, -5270026735000140197}, {-8952655747025888600, -4146926823727203341, -7593051349787318566, -5324910285515075030, -2400159382743497849, -4943108900855281182, -4724248013693347506, 1549221919281048244, -654923456280414984}, {2597704904446155095, 3382128837349334916, -4943108900855281182, -3454476873645847900, 8833648343619610388, -7725069668258572878, -2323152778967741440, 7593051349787318565, 1549221919281048244}, {7471563886572898133, -5566308932208098479, -7725069668258572878, -4944044752837389401, 5717975612524082595, 5379171469973762489, 2271851086463967369, 4943108900855281181, 7593051349787318565}
		};


#endif
