#ifndef PMNS_PARAMS_H_INCLUDED
#define PMNS_PARAMS_H_INCLUDED

#define RHO 54
#define N 10
#define _PRAGMAGCCUNROLLLOOP_ _Pragma("GCC unroll 10")
#define LAMBDA 5

static const int64_t B[N][N] = {
{-1000491813487698, -6230865891262, -235593344928280, -1103075540430035, 766371721911900, -658777131392169, 591351034909673, 743142482893917, -471834945357022, -419186339690151}, {-93264437739221, 1059307615410125, 466543690769400, 185759345393531, 146781848632107, 164892617452923, 1375984704299040, 218146777590847, -2012467708117734, -343879263581968}, {469799818280136, -152080239661648, 598994790531987, 516377690304149, 1142053037191459, -784482490732716, -552314955453948, 566486891798520, 1487472002814664, -1196753499178744}, {-1188704322702278, 65046667813689, 695906169806418, 1053241540895286, -1722665413709828, 1590041470756992, 125856537997198, 66355329606603, -797490279866795, -396527869248839}, {510521710922131, -928963908331978, -1488170435624786, 419625867445266, 169486443553770, 631857488130035, -830250373274254, -765529947760821, -1005632893742016, -1116541942212753}, {891027887395522, 975916666865235, 946880111882736, -1403715553172004, -1032609988324553, -945646950375555, 1655239317227332, -255547952953402, 145450999539697, -957376614653776}, {-982147532756497, -1182473456811016, 300640012741969, 1798981710236453, 286869818983386, -1063888282317659, 998690435847319, -617285944896719, 538190274963625, -378303940176644}, {-380178003843984, -92662836523408, 2093555648463583, -103357575259389, 627263662029188, -86123157105249, 282867203104280, -2252570654098929, -454788312052705, 1199993396849335}, {1616138092715761, -2545102001047739, 1056931565422953, -637305697977687, 806792141531457, -174934653401422, -655315719872832, -110214227887989, -895418665854027, -221123276358726}, {-1196137338761251, 879164844006352, -25686481754953, 12624425690747, -1310545406144859, -2277663789934896, -837865579329348, -175336395987411, 153595378068096, -1112753348387842}
		},
	B1[N][N] = {
{8881258504379337901u, -6473720529583872869u, 9030463530794211801u, 5340696855448260698u, -972678012368661517u, 8456729636550376178u, -6164619898801222425u, -3585852566545834784u, -6096339439021852519u, 6718146173298327385u}, {-5963144582419177192u, 6064592818224218094u, -6473720529583872869u, -7667436277803549569u, 2920996985768661402u, 406024631867858677u, 5340696855448260698u, -84959815439839163u, -5547298645949532549u, -3271868263860848053u}, {6154170335763222175u, -5828927314493993230u, 6064592818224218094u, -6232159124563320778u, -3032326292048729824u, 3998867306128601547u, -7667436277803549569u, -6739631992236220357u, 9015062374324904853u, -2865843631992989376u}, {7943930398055889180u, -1353113140708610167u, -5828927314493993230u, -7216578859893001873u, 1983868776147573482u, 469819785443719304u, -6232159124563320778u, 6906054886418719251u, -340216819027061864u, 1133023674135612171u}, {6347021594223579473u, 8580214238992356899u, -1353113140708610167u, -2557452707838528511u, 1173832171676792314u, -7988501094231569083u, -7216578859893001873u, 8828654323080024788u, -7355413829917350753u, 1602843459579331475u}, {-6853558571505866285u, -8560019512320595135u, 8580214238992356899u, -466357093548143877u, 1806919435991010644u, -3491394438455701968u, -2557452707838528511u, -7405091832532511166u, -2083394951680358222u, -6385657634652237608u}, {-8350379383127583380u, 6488642939819265634u, -8560019512320595135u, -7498404649418522287u, 3214918922766354390u, 3854290541954111188u, -466357093548143877u, -7040176200845910515u, 2737913517874031129u, 8569692000601612040u}, {6365678629368404187u, -8954564429611608945u, 6488642939819265634u, -6189422363170476364u, 2098541898686274331u, -3397605936686984216u, -7498404649418522287u, -8181976461816269806u, -4432989129165700899u, -6022761531153828388u}, {-6347744924390232338u, -6847310786643103760u, -8954564429611608945u, 4759908032237792409u, 1063158706207557648u, -8016614896269482359u, -6189422363170476364u, -7700344304541570233u, 6110571902553442744u, 9026376605868739012u}, {3792948446526141365u, 8258829506551955773u, -6847310786643103760u, 6070388653412991107u, -3256398568679068865u, -4312518990526722960u, 4759908032237792409u, 8835315187006257948u, -5919510483690961680u, 1009761709599256653u}
		};

#endif
